<?xml version="1.0"?>
<opencv_storage>
<cascade>
  <stageType>BOOST</stageType>
  <featureType>LBP</featureType>
  <height>7</height>
  <width>7</width>
  <stageParams>
    <boostType>GAB</boostType>
    <minHitRate>9.9500000476837158e-01</minHitRate>
    <maxFalseAlarm>3.0000001192092896e-01</maxFalseAlarm>
    <weightTrimRate>9.4999999999999996e-01</weightTrimRate>
    <maxDepth>1</maxDepth>
    <maxWeakCount>100</maxWeakCount></stageParams>
  <featureParams>
    <maxCatCount>256</maxCatCount>
    <featSize>1</featSize></featureParams>
  <stageNum>20</stageNum>
  <stages>
    <!-- stage 0 -->
    <_>
      <maxWeakCount>7</maxWeakCount>
      <stageThreshold>-2.2323484420776367e+00</stageThreshold>
      <weakClassifiers>
        <_>
          <internalNodes>
            0 -1 9 -1 -16842753 -2 -387780630 -262145 -135006233 -1
            -134744201</internalNodes>
          <leafValues>
            -8.5731369256973267e-01 3.0753564834594727e-01</leafValues></_>
        <_>
          <internalNodes>
            0 -1 43 -34081724 -17301505 -269484065 -276824713 -185087996
            -991955115 -721632192 -989866505</internalNodes>
          <leafValues>
            -7.5549083948135376e-01 3.7683686614036560e-01</leafValues></_>
        <_>
          <internalNodes>
            0 -1 20 -1055314 -33554434 -423299260 -54460562 -49
            -170393604 -226629820 -187369516</internalNodes>
          <leafValues>
            -6.7471152544021606e-01 3.8882079720497131e-01</leafValues></_>
        <_>
          <internalNodes>
            0 -1 8 -285216785 -293802014 -286343422 -366810456 -17369233
            -466489409 -34081536 -159910298</internalNodes>
          <leafValues>
            -5.0156348943710327e-01 4.9640312790870667e-01</leafValues></_>
        <_>
          <internalNodes>
            0 -1 25 -4098 -1308623426 -360788440 -339804470 -135169
            1357377514 -478711676 1894832320</internalNodes>
          <leafValues>
            -6.2440222501754761e-01 3.3251291513442993e-01</leafValues></_>
        <_>
          <internalNodes>
            0 -1 2 -420565334 -486642881 -151721218 -361693202
            -168046881 376893412 -504058011 -168296714</internalNodes>
          <leafValues>
            -4.9169549345970154e-01 4.0538868308067322e-01</leafValues></_>
        <_>
          <internalNodes>
            0 -1 48 -1360015569 146739198 -1140904406 -1549021633
            -352619637 32505723 -84472560 -1967139921</internalNodes>
          <leafValues>
            -3.5658296942710876e-01 4.6778449416160583e-01</leafValues></_></weakClassifiers></_>
    <!-- stage 1 -->
    <_>
      <maxWeakCount>12</maxWeakCount>
      <stageThreshold>-1.9178502559661865e+00</stageThreshold>
      <weakClassifiers>
        <_>
          <internalNodes>
            0 -1 3 -17104898 -986670 -796339202 -706679824 -50594817
            -1274657 -557387777 -136841221</internalNodes>
          <leafValues>
            -8.7893688678741455e-01 -1.4252674579620361e-01</leafValues></_>
        <_>
          <internalNodes>
            0 -1 16 -134241664 -73558726 -803161872 -574752261
            -1804092530 -1354919770 -457836354 -188622929</internalNodes>
          <leafValues>
            -6.7874389886856079e-01 2.3547258973121643e-01</leafValues></_>
        <_>
          <internalNodes>
            0 -1 44 -50869696 -46173114 1913683380 -176948365 -577509308
            -104600745 -723061588 -722470917</internalNodes>
          <leafValues>
            -5.2699041366577148e-01 3.7051722407341003e-01</leafValues></_>
        <_>
          <internalNodes>
            0 -1 21 -67174946 -2188197 -561185636 -677795158 -106955826
            2077942402 -396785524 811315338</internalNodes>
          <leafValues>
            -5.6010752916336060e-01 3.2032531499862671e-01</leafValues></_>
        <_>
          <internalNodes>
            0 -1 4 -464782158 -536294840 -1671965776 -4134816
            -1935416338 1679935664 112967888 -977538077</internalNodes>
          <leafValues>
            -3.9029777050018311e-01 3.8636386394500732e-01</leafValues></_>
        <_>
          <internalNodes>
            0 -1 26 -298078989 -301774 -536957186 1058152998 249564184
            -142671499 -554236193 -12385958</internalNodes>
          <leafValues>
            -3.4446549415588379e-01 4.0945625305175781e-01</leafValues></_>
        <_>
          <internalNodes>
            0 -1 46 -75501602 -941949614 -227093004 2138829343
            -791165756 22137328 -1665403512 -991955925</internalNodes>
          <leafValues>
            -3.6350265145301819e-01 3.6861974000930786e-01</leafValues></_>
        <_>
          <internalNodes>
            0 -1 42 -268515772 -1240960191 1352095579 -1279545039
            -2060473968 -237932192 -23414630 -1338510726</internalNodes>
          <leafValues>
            -3.7356498837471008e-01 3.6265602707862854e-01</leafValues></_>
        <_>
          <internalNodes>
            0 -1 14 -1031097686 -140465462 -400948262 -141194240
            105335530 -603150911 -1398514762 1173685473</internalNodes>
          <leafValues>
            -4.4544479250907898e-01 2.7469661831855774e-01</leafValues></_>
        <_>
          <internalNodes>
            0 -1 37 -153214904 -141670820 2082233330 -1968000 -60885308
            -122783052 1992751788 -1125676114</internalNodes>
          <leafValues>
            -4.2489343881607056e-01 2.9217523336410522e-01</leafValues></_>
        <_>
          <internalNodes>
            0 -1 10 -1052938 -734512124 -269043849 -215824734 1744787323
            -151595151 -69011842 -585645705</internalNodes>
          <leafValues>
            -3.1532952189445496e-01 4.0051734447479248e-01</leafValues></_>
        <_>
          <internalNodes>
            0 -1 22 -272636066 -158403118 -2082076048 -611565372
            -1679177218 -867133120 -2004621084 -1055546219</internalNodes>
          <leafValues>
            -4.1863399744033813e-01 2.8591442108154297e-01</leafValues></_></weakClassifiers></_>
    <!-- stage 2 -->
    <_>
      <maxWeakCount>16</maxWeakCount>
      <stageThreshold>-1.8002614974975586e+00</stageThreshold>
      <weakClassifiers>
        <_>
          <internalNodes>
            0 -1 40 -1 -1 -4194306 -2 -1 -1 -16778500 -50528772</internalNodes>
          <leafValues>
            -7.9997920989990234e-01 -1.3090756535530090e-01</leafValues></_>
        <_>
          <internalNodes>
            0 -1 35 -185204732 -32771 -17629186 -82190 -37953572 -1
            -5308678 -21185826</internalNodes>
          <leafValues>
            -6.2986487150192261e-01 1.9603380560874939e-01</leafValues></_>
        <_>
          <internalNodes>
            0 -1 15 -286467074 -196866 -1078067201 -270733968 -268501121
            -538066949 -16924977 -177080716</internalNodes>
          <leafValues>
            -5.0827872753143311e-01 2.5981056690216064e-01</leafValues></_>
        <_>
          <internalNodes>
            0 -1 44 1079971652 2143255295 1992228092 1861730162
            -151257532 -167772321 -9036 -520159950</internalNodes>
          <leafValues>
            -4.7314518690109253e-01 2.2995905578136444e-01</leafValues></_>
        <_>
          <internalNodes>
            0 -1 34 74976317 -134266883 2136876030 -1073844549
            1001664124 -98337 1743335164 933759696</internalNodes>
          <leafValues>
            -4.6746233105659485e-01 2.4714812636375427e-01</leafValues></_>
        <_>
          <internalNodes>
            0 -1 7 -153419777 -806420481 -10731906 -2114966454
            1940664319 -2134441 1874689279 1810058978</internalNodes>
          <leafValues>
            -3.7929326295852661e-01 2.8204590082168579e-01</leafValues></_>
        <_>
          <internalNodes>
            0 -1 47 -101220571 -1963983041 -134225996 -289521939
            -407898120 8388411 -303070016 -2065434967</internalNodes>
          <leafValues>
            -3.6269217729568481e-01 2.8501844406127930e-01</leafValues></_>
        <_>
          <internalNodes>
            0 -1 8 -276828609 -427921497 -286851142 -22872136 -16812177
            1828188159 -251660508 -822041</internalNodes>
          <leafValues>
            -2.8260719776153564e-01 3.3199101686477661e-01</leafValues></_>
        <_>
          <internalNodes>
            0 -1 20 -336681940 -100728898 -151587474 -321650692
            -1210213139 2006231996 -226695480 -722184503</internalNodes>
          <leafValues>
            -4.7812718152999878e-01 1.9165514409542084e-01</leafValues></_>
        <_>
          <internalNodes>
            0 -1 2 -501339474 -84247617 -17007634 -554386480 -425914659
            1014971332 -1040914 1164266674</internalNodes>
          <leafValues>
            -4.8380988836288452e-01 1.7937365174293518e-01</leafValues></_>
        <_>
          <internalNodes>
            0 -1 48 -289469403 781469565 -1409666520 -1447063881
            -1350731909 208666495 -50363248 -1912619989</internalNodes>
          <leafValues>
            -3.2153668999671936e-01 2.7783158421516418e-01</leafValues></_>
        <_>
          <internalNodes>
            0 -1 18 -911429664 -1159792158 -17309770 -153726144
            -302197811 -854725650 1337361908 -707830540</internalNodes>
          <leafValues>
            -3.7426885962486267e-01 2.1550254523754120e-01</leafValues></_>
        <_>
          <internalNodes>
            0 -1 27 401938284 250036159 -1476556424 1404514238
            1602037420 2043424222 -1350760820 606938890</internalNodes>
          <leafValues>
            -4.9661669135093689e-01 1.6656252741813660e-01</leafValues></_>
        <_>
          <internalNodes>
            0 -1 36 849410160 -33751106 1840819684 -1245576 -430638668
            -9603 -1493943180 884489332</internalNodes>
          <leafValues>
            -7.6695483922958374e-01 1.0078658908605576e-01</leafValues></_>
        <_>
          <internalNodes>
            0 -1 10 -286265746 986492452 -36260226 -1163748302
            1935630167 2121752369 -101307306 -194843806</internalNodes>
          <leafValues>
            -3.8040202856063843e-01 2.1055068075656891e-01</leafValues></_>
        <_>
          <internalNodes>
            0 -1 0 1299115872 723938794 -1224851460 -170918224 98809831
            1851785173 1156478448 -1023478363</internalNodes>
          <leafValues>
            -3.3503288030624390e-01 2.3930050432682037e-01</leafValues></_></weakClassifiers></_>
    <!-- stage 3 -->
    <_>
      <maxWeakCount>21</maxWeakCount>
      <stageThreshold>-1.7416129112243652e+00</stageThreshold>
      <weakClassifiers>
        <_>
          <internalNodes>
            0 -1 23 -616579073 -8421377 -41943044 -2 -1147142145 -519
            -1028 -134219013</internalNodes>
          <leafValues>
            -7.8150188922882080e-01 -2.4572317302227020e-01</leafValues></_>
        <_>
          <internalNodes>
            0 -1 43 -526508 -67633153 -1114113 -6553801 -570960972
            -35855 -33632516 -50331649</internalNodes>
          <leafValues>
            -5.0190019607543945e-01 1.5023991465568542e-01</leafValues></_>
        <_>
          <internalNodes>
            0 -1 1 -461439626 -1439499312 -131633 -621558094 1962932213
            -218634797 -1231552649 -151795949</internalNodes>
          <leafValues>
            -3.5678482055664062e-01 3.0094680190086365e-01</leafValues></_>
        <_>
          <internalNodes>
            0 -1 28 -1595899776 -1094910993 -16916994 -1528504750
            -42065921 -1074402339 -53182484 -531362460</internalNodes>
          <leafValues>
            -4.7864311933517456e-01 2.0480054616928101e-01</leafValues></_>
        <_>
          <internalNodes>
            0 -1 11 -407078953 -136355851 -67977218 -1389168 2008901591
            -529573 933430751 1998739318</internalNodes>
          <leafValues>
            -3.6123651266098022e-01 2.5740784406661987e-01</leafValues></_>
        <_>
          <internalNodes>
            0 -1 37 -184672252 -1347652034 -54911000 -1130333136
            -41943694 -1125286465 -139657676 -134938748</internalNodes>
          <leafValues>
            -4.5473280549049377e-01 2.0122581720352173e-01</leafValues></_>
        <_>
          <internalNodes>
            0 -1 14 -966129494 -5442080 -151031809 -134883616 -408525057
            -3752991 -1352052748 -135830060</internalNodes>
          <leafValues>
            -3.4403696656227112e-01 2.5580558180809021e-01</leafValues></_>
        <_>
          <internalNodes>
            0 -1 12 -277624817 611200557 -17420289 -1606091502 658457621
            938966134 -151559106 -461937537</internalNodes>
          <leafValues>
            -3.1680420041084290e-01 2.6186627149581909e-01</leafValues></_>
        <_>
          <internalNodes>
            0 -1 45 -21254316 -2107867137 -1286017090 1002346431
            -730778064 -1649279553 -269556688 29091255</internalNodes>
          <leafValues>
            -3.9219450950622559e-01 2.0359858870506287e-01</leafValues></_>
        <_>
          <internalNodes>
            0 -1 33 1601421116 1073528828 -1141137676 -536920264
            -68276257 -33751041 -542610946 -38752520</internalNodes>
          <leafValues>
            -2.7670416235923767e-01 2.8515619039535522e-01</leafValues></_>
        <_>
          <internalNodes>
            0 -1 18 -886919192 -320931678 -17506324 -33783836 -285355009
            -859701260 1131713879 -168691467</internalNodes>
          <leafValues>
            -3.9000764489173889e-01 2.1077847480773926e-01</leafValues></_>
        <_>
          <internalNodes>
            0 -1 35 -453763008 -1564590613 -453836866 -181649880
            1016642780 -545538050 -1347651094 -1608467334</internalNodes>
          <leafValues>
            -4.4582304358482361e-01 1.7019216716289520e-01</leafValues></_>
        <_>
          <internalNodes>
            0 -1 41 233378877 922566396 536061754 -1346945348 1576874493
            949352439 675166264 280899624</internalNodes>
          <leafValues>
            -4.7826698422431946e-01 1.3198347389698029e-01</leafValues></_>
        <_>
          <internalNodes>
            0 -1 42 -528482550 -1098122277 -1677787277 -1230325953
            -973099674 -1277427843 -50659857 -199245825</internalNodes>
          <leafValues>
            -2.2667053341865540e-01 2.9832765460014343e-01</leafValues></_>
        <_>
          <internalNodes>
            0 -1 22 1201595102 -423821504 -1901166608 -225251610
            130045212 1279290724 -1372524192 -531585516</internalNodes>
          <leafValues>
            -4.9042832851409912e-01 1.2981657683849335e-01</leafValues></_>
        <_>
          <internalNodes>
            0 -1 5 -28418290 -1370079504 1843347246 -1343603080
            -1066050017 368933361 -581089937 699880799</internalNodes>
          <leafValues>
            -3.3084437251091003e-01 1.9927583634853363e-01</leafValues></_>
        <_>
          <internalNodes>
            0 -1 16 -276879866 -1900176578 -294277644 -2134966678
            353582862 784179926 -1359881188 608177956</internalNodes>
          <leafValues>
            -5.2090543508529663e-01 1.2030714750289917e-01</leafValues></_>
        <_>
          <internalNodes>
            0 -1 13 -1898539030 27168254 -811873958 618957984 1698104598
            632512507 665780846 73859206</internalNodes>
          <leafValues>
            -5.2727317810058594e-01 1.0585281997919083e-01</leafValues></_>
        <_>
          <internalNodes>
            0 -1 21 -27734772 -2223117 388886270 -1414153302 -1075135541
            2141126386 746392780 932296202</internalNodes>
          <leafValues>
            -4.1059720516204834e-01 1.4905458688735962e-01</leafValues></_>
        <_>
          <internalNodes>
            0 -1 39 -191819206 -1349192276 2013020148 -501174468
            1791550812 -572744988 -93002076 615260900</internalNodes>
          <leafValues>
            -5.7684290409088135e-01 1.0797644406557083e-01</leafValues></_>
        <_>
          <internalNodes>
            0 -1 47 -86890728 -2001209044 -138455352 -21348849
            1670084425 14223898 -1527954176 1074459812</internalNodes>
          <leafValues>
            -4.6472170948982239e-01 1.2003866583108902e-01</leafValues></_></weakClassifiers></_>
    <!-- stage 4 -->
    <_>
      <maxWeakCount>24</maxWeakCount>
      <stageThreshold>-1.5732910633087158e+00</stageThreshold>
      <weakClassifiers>
        <_>
          <internalNodes>
            0 -1 33 -1652760580 -537005923 -1688742728 -9732 -345892
            -556213512 -33817608 -4685160</internalNodes>
          <leafValues>
            -8.0626434087753296e-01 -3.5727685689926147e-01</leafValues></_>
        <_>
          <internalNodes>
            0 -1 14 -1431791368 -18964000 -2457633 -36334864 -1364791557
            -7689248 -1085359617 -33709839</internalNodes>
          <leafValues>
            -4.7670608758926392e-01 1.6365312039852142e-01</leafValues></_>
        <_>
          <internalNodes>
            0 -1 4 604958968 -1023874872 -1740707646 -2229520 748762110
            -2069589262 383435542 -4459568</internalNodes>
          <leafValues>
            -3.5634499788284302e-01 2.5170210003852844e-01</leafValues></_>
        <_>
          <internalNodes>
            0 -1 46 -8405252 -285343753 -65584 -42205569 -134219888
            -1409294849 -1090912352 -203161617</internalNodes>
          <leafValues>
            -2.7367120981216431e-01 3.1049463152885437e-01</leafValues></_>
        <_>
          <internalNodes>
            0 -1 37 -640027916 -5308738 -42156038 -5178208 -67842
            -1245188 -217776214 -3371128</internalNodes>
          <leafValues>
            -2.5645944476127625e-01 3.2698330283164978e-01</leafValues></_>
        <_>
          <internalNodes>
            0 -1 24 -1143864326 -611396868 2031407856 -555220304
            2063088066 -1076853654 -160374153 -79298030</internalNodes>
          <leafValues>
            -3.6786344647407532e-01 2.2519056499004364e-01</leafValues></_>
        <_>
          <internalNodes>
            0 -1 42 -252279740 -3147053 -1694498823 -525600774
            -2063602280 -1311049761 -172310630 -258564902</internalNodes>
          <leafValues>
            -2.4763543903827667e-01 3.3865174651145935e-01</leafValues></_>
        <_>
          <internalNodes>
            0 -1 34 2053638394 -981585060 1059730140 923827738
            -1685803268 -1078167206 -2476802 -6813304</internalNodes>
          <leafValues>
            -2.6533278822898865e-01 3.0972775816917419e-01</leafValues></_>
        <_>
          <internalNodes>
            0 -1 28 -219635458 -68174866 2121715711 -45375910
            -1073831972 -33657890 -2834434 -1436631187</internalNodes>
          <leafValues>
            -2.3485787212848663e-01 3.4948191046714783e-01</leafValues></_>
        <_>
          <internalNodes>
            0 -1 18 -1994204422 -83953438 -269025616 -67116046
            1307891676 -836173852 -680216592 -2165114</internalNodes>
          <leafValues>
            -2.7482974529266357e-01 2.9529872536659241e-01</leafValues></_>
        <_>
          <internalNodes>
            0 -1 32 1543270942 -939765492 293532154 -50582608
            -1165317648 -908064204 -72027266 -101655312</internalNodes>
          <leafValues>
            -3.9654698967933655e-01 2.0810952782630920e-01</leafValues></_>
        <_>
          <internalNodes>
            0 -1 47 -67637504 -1967214980 -134226204 -37781511
            -1750076176 8179387 2113910264 -105121809</internalNodes>
          <leafValues>
            -2.3791401088237762e-01 3.3645087480545044e-01</leafValues></_>
        <_>
          <internalNodes>
            0 -1 0 -332728140 -63817312 -825216902 -34889584 1927526396
            -93396240 1910961314 -236384080</internalNodes>
          <leafValues>
            -2.7345257997512817e-01 2.9433912038803101e-01</leafValues></_>
        <_>
          <internalNodes>
            0 -1 40 -1682195484 -131156 -1614824792 -38029282 -302080002
            -1611333890 1056917688 -70569814</internalNodes>
          <leafValues>
            -1.8486590683460236e-01 3.8183209300041199e-01</leafValues></_>
        <_>
          <internalNodes>
            0 -1 44 1557531210 2101247724 2143223546 -160170509
            -998517596 -50397314 1459549870 -1679294549</internalNodes>
          <leafValues>
            -2.4366091191768646e-01 3.0650490522384644e-01</leafValues></_>
        <_>
          <internalNodes>
            0 -1 26 -461886288 263873616 -644436242 -6543366 1858407544
            -146997128 -537745442 -8715382</internalNodes>
          <leafValues>
            -2.6316741108894348e-01 2.6514127850532532e-01</leafValues></_>
        <_>
          <internalNodes>
            0 -1 35 -134506444 -5267227 -103098390 -14110550 -107750684
            -612921306 -206913800 -93443368</internalNodes>
          <leafValues>
            -2.6260519027709961e-01 2.5089368224143982e-01</leafValues></_>
        <_>
          <internalNodes>
            0 -1 3 -1461693828 -1359175821 -1899115044 -287245060
            -1730590066 -153161 -565932230 -151964570</internalNodes>
          <leafValues>
            -4.5766988396644592e-01 1.4707975089550018e-01</leafValues></_>
        <_>
          <internalNodes>
            0 -1 10 -775462260 -122361148 1267922730 -202185488
            -517810832 -1199860703 -77416924 -4990602</internalNodes>
          <leafValues>
            -2.5670966506004333e-01 2.5033026933670044e-01</leafValues></_>
        <_>
          <internalNodes>
            0 -1 2 -2100367622 -86613506 -19894548 -1086271766 -21230879
            -1226945912 -382596034 -134846278</internalNodes>
          <leafValues>
            -3.1594464182853699e-01 1.9600917398929596e-01</leafValues></_>
        <_>
          <internalNodes>
            0 -1 30 821078254 -794269236 1356354038 -713166544
            -1145142275 -745535104 -1594315786 -409228572</internalNodes>
          <leafValues>
            -2.5928261876106262e-01 2.4468798935413361e-01</leafValues></_>
        <_>
          <internalNodes>
            0 -1 37 -1362981686 -1087887174 2094874360 -47955552
            -131714336 -23920184 720109224 -1528123734</internalNodes>
          <leafValues>
            -3.5161107778549194e-01 1.9295875728130341e-01</leafValues></_>
        <_>
          <internalNodes>
            0 -1 33 -1938386500 380948624 457413820 -537257928
            -1077270434 -187002128 -38262664 -574944688</internalNodes>
          <leafValues>
            -2.6454830169677734e-01 2.3280155658721924e-01</leafValues></_>
        <_>
          <internalNodes>
            0 -1 39 -155657996 -150994860 -1499573922 -84245590
            -1431133572 -742391792 -67646535 -105455426</internalNodes>
          <leafValues>
            -2.5569269061088562e-01 2.4209651350975037e-01</leafValues></_></weakClassifiers></_>
    <!-- stage 5 -->
    <_>
      <maxWeakCount>46</maxWeakCount>
      <stageThreshold>-1.5318390130996704e+00</stageThreshold>
      <weakClassifiers>
        <_>
          <internalNodes>
            0 -1 22 -14682114 -675349538 -1813469448 -92420 -1616345925
            -840897817 -553452802 -769</internalNodes>
          <leafValues>
            -7.5721752643585205e-01 -4.1786384582519531e-01</leafValues></_>
        <_>
          <internalNodes>
            0 -1 45 -29626808 -1554714353 316171932 -1558838497
            1685259264 95525180 212665352 4174139</internalNodes>
          <leafValues>
            -5.7493233680725098e-01 -3.3043533563613892e-02</leafValues></_>
        <_>
          <internalNodes>
            0 -1 35 -722075584 -223369090 -1124926465 -716043568
            -23151922 -553950894 749533418 -335877937</internalNodes>
          <leafValues>
            -3.3169904351234436e-01 1.5865424275398254e-01</leafValues></_>
        <_>
          <internalNodes>
            0 -1 4 -307267913 -289478078 -872416558 -2233614 -1918158852
            -1405231374 1476130769 -1069</internalNodes>
          <leafValues>
            -1.6214551031589508e-01 2.9598391056060791e-01</leafValues></_>
        <_>
          <internalNodes>
            0 -1 42 -1469061566 -1106544125 1358617467 -1341476037
            -2001081918 -78387082 -1734166357 1010417275</internalNodes>
          <leafValues>
            -2.3793286085128784e-01 2.0135207474231720e-01</leafValues></_>
        <_>
          <internalNodes>
            0 -1 27 -539521349 771734342 1690635176 -135811170
            -213912344 1978217882 -1284765042 889790474</internalNodes>
          <leafValues>
            -3.1805166602134705e-01 1.4739665389060974e-01</leafValues></_>
        <_>
          <internalNodes>
            0 -1 6 -2064208202 -231734 1412460474 1213001460 -5158977
            -1082851163 -209232532 -51194142</internalNodes>
          <leafValues>
            -3.1222116947174072e-01 1.5895330905914307e-01</leafValues></_>
        <_>
          <internalNodes>
            0 -1 43 -393170940 523444983 -1154780361 -2108003500
            1307826820 -522574056 829710952 1149080406</internalNodes>
          <leafValues>
            -4.5830276608467102e-01 8.9089028537273407e-02</leafValues></_>
        <_>
          <internalNodes>
            0 -1 13 -1897088133 -470814722 -402673797 -304741648
            1719489983 -1082933253 1877998591 -67681550</internalNodes>
          <leafValues>
            -1.6810990869998932e-01 2.4134825170040131e-01</leafValues></_>
        <_>
          <internalNodes>
            0 -1 5 -553681104 -1129136552 1675302205 -1152060352
            1868892735 -1990428175 1535066378 -260844489</internalNodes>
          <leafValues>
            -2.1981936693191528e-01 1.8232622742652893e-01</leafValues></_>
        <_>
          <internalNodes>
            0 -1 23 1779631898 1836978682 -1386295688 -75960322
            -831259650 1200019878 2111285432 -992098198</internalNodes>
          <leafValues>
            -3.0702352523803711e-01 1.3075582683086395e-01</leafValues></_>
        <_>
          <internalNodes>
            0 -1 0 -311460251 -268259424 316568445 -1782722328 172962401
            -297763964 350647987 1357796544</internalNodes>
          <leafValues>
            -2.3608626425266266e-01 1.6603489220142365e-01</leafValues></_>
        <_>
          <internalNodes>
            0 -1 48 -1157161819 146548442 -1846400735 -1851027684
            241766811 224904003 -127726182 137885867</internalNodes>
          <leafValues>
            -2.7228203415870667e-01 1.4233286678791046e-01</leafValues></_>
        <_>
          <internalNodes>
            0 -1 19 -1037653348 263890720 -999568802 -1956090656
            985675577 -1090612290 926719768 54527056</internalNodes>
          <leafValues>
            -6.1944890022277832e-01 6.0431998223066330e-02</leafValues></_>
        <_>
          <internalNodes>
            0 -1 2 -488765198 997956666 -828356876 -1950290311
            -134439180 1813179468 -108000926 611731826</internalNodes>
          <leafValues>
            -3.4147325158119202e-01 1.0412511974573135e-01</leafValues></_>
        <_>
          <internalNodes>
            0 -1 46 -27479334 -889963662 -385702836 -1361900712
            -721956288 2039321010 -1233600128 -1788625625</internalNodes>
          <leafValues>
            -2.7329626679420471e-01 1.2725666165351868e-01</leafValues></_>
        <_>
          <internalNodes>
            0 -1 30 -1838636934 -708282980 -1812717722 1438448968
            -1086747784 1440004505 278694910 1342220516</internalNodes>
          <leafValues>
            -3.6813035607337952e-01 9.1228641569614410e-02</leafValues></_>
        <_>
          <internalNodes>
            0 -1 15 -606213122 -1329631496 -1094713345 182287858
            -1354760833 -604110863 -1889026353 148895443</internalNodes>
          <leafValues>
            -1.5805968642234802e-01 2.2410251200199127e-01</leafValues></_>
        <_>
          <internalNodes>
            0 -1 26 746196402 1257719928 -891672354 196092452 1312818228
            1064633204 1588724654 654311730</internalNodes>
          <leafValues>
            -4.6429055929183960e-01 7.9129122197628021e-02</leafValues></_>
        <_>
          <internalNodes>
            0 -1 29 1854178212 686555178 -1726200990 161267890
            1520994464 1006604956 -4255314 446751402</internalNodes>
          <leafValues>
            -3.6359611153602600e-01 8.5721068084239960e-02</leafValues></_>
        <_>
          <internalNodes>
            0 -1 18 -1951497480 -1570836286 -15445856 1977373456
            -1433370160 1208136746 1331991888 1439387876</internalNodes>
          <leafValues>
            -3.4935304522514343e-01 9.8158895969390869e-02</leafValues></_>
        <_>
          <internalNodes>
            0 -1 44 1258289742 2107351586 272244404 204472656 -973869996
            -37819977 -1862864720 1412166066</internalNodes>
          <leafValues>
            -2.9690542817115784e-01 1.0589856654405594e-01</leafValues></_>
        <_>
          <internalNodes>
            0 -1 14 572557472 -559905568 1742351326 882229864 49669730
            1569558241 141300212 7095508</internalNodes>
          <leafValues>
            -4.3516886234283447e-01 7.1136191487312317e-02</leafValues></_>
        <_>
          <internalNodes>
            0 -1 25 1578001612 159305902 173952554 -1698821158
            -613843146 279309096 1618358792 1074807360</internalNodes>
          <leafValues>
            -6.2199211120605469e-01 4.6976931393146515e-02</leafValues></_>
        <_>
          <internalNodes>
            0 -1 41 -1661030116 -1325646166 -1611172168 -1107331396
            503149943 1505032115 -391209874 -12994038</internalNodes>
          <leafValues>
            -1.5046015381813049e-01 2.2321888804435730e-01</leafValues></_>
        <_>
          <internalNodes>
            0 -1 34 -2072437710 -2072242335 2030436600 1064398538
            -878696904 1006403474 1726621560 922815552</internalNodes>
          <leafValues>
            -3.9270654320716858e-01 9.6038445830345154e-02</leafValues></_>
        <_>
          <internalNodes>
            0 -1 12 -832327467 -1327584580 -152637699 -1174210026
            272327705 -1756925834 -1506549639 -633879053</internalNodes>
          <leafValues>
            -1.8082919716835022e-01 1.8790248036384583e-01</leafValues></_>
        <_>
          <internalNodes>
            0 -1 33 205081468 1049388693 32968176 2130197608 1807362140
            -1344787460 -1815598768 137374224</internalNodes>
          <leafValues>
            -5.2152401208877563e-01 6.0473609715700150e-02</leafValues></_>
        <_>
          <internalNodes>
            0 -1 47 -243856768 -2037736955 1128723452 2115781677
            -1014288412 -1070480501 502633856 -211553809</internalNodes>
          <leafValues>
            -1.8893368542194366e-01 1.7293485999107361e-01</leafValues></_>
        <_>
          <internalNodes>
            0 -1 8 -311427454 1953951553 -1092092008 -181143944
            -143327381 -185110533 1912469156 -35129374</internalNodes>
          <leafValues>
            -1.6361697018146515e-01 1.9483871757984161e-01</leafValues></_>
        <_>
          <internalNodes>
            0 -1 37 -229646086 -272728258 2122235894 -426838 -25264134
            -1124696066 1958117026 -547353</internalNodes>
          <leafValues>
            -1.6203783452510834e-01 2.0995080471038818e-01</leafValues></_>
        <_>
          <internalNodes>
            0 -1 16 -890461680 -1158024150 -230115168 77450874
            -581325892 733729272 1674660910 406897393</internalNodes>
          <leafValues>
            -3.0947017669677734e-01 1.1030069738626480e-01</leafValues></_>
        <_>
          <internalNodes>
            0 -1 28 -394657085 -1155255836 639698391 -1247903165
            -1088249858 -25148776 -573015065 2018787089</internalNodes>
          <leafValues>
            -2.1776035428047180e-01 1.4885841310024261e-01</leafValues></_>
        <_>
          <internalNodes>
            0 -1 4 888042544 339528304 -824442784 -17517848 138482512
            1961136672 -2032959151 1143537658</internalNodes>
          <leafValues>
            -3.0410256981849670e-01 1.1221749335527420e-01</leafValues></_>
        <_>
          <internalNodes>
            0 -1 7 -16842826 216725439 -1100136852 141798978 -1167363
            2145347158 -268600097 -268468497</internalNodes>
          <leafValues>
            -1.5781973302364349e-01 2.2288301587104797e-01</leafValues></_>
        <_>
          <internalNodes>
            0 -1 1 1753130036 1795213872 1827489861 -42743824 1725679570
            -296058398 860649994 1123501120</internalNodes>
          <leafValues>
            -2.7632650732994080e-01 1.1887244880199432e-01</leafValues></_>
        <_>
          <internalNodes>
            0 -1 20 -122837462 -369444582 -154755714 1556398958
            -2028893955 999467674 1924982980 273995456</internalNodes>
          <leafValues>
            -4.2161366343498230e-01 7.7107243239879608e-02</leafValues></_>
        <_>
          <internalNodes>
            0 -1 9 1747323248 2054566750 -566437930 681600728
            -1686993807 -1260354168 -555975304 1191186484</internalNodes>
          <leafValues>
            -4.9001371860504150e-01 5.8449938893318176e-02</leafValues></_>
        <_>
          <internalNodes>
            0 -1 45 -4477357 -1426194433 -1074204740 1002344447
            913315249 -575414337 1340354111 -615569569</internalNodes>
          <leafValues>
            -1.1317637562751770e-01 2.6692965626716614e-01</leafValues></_>
        <_>
          <internalNodes>
            0 -1 35 -1497587532 50227316 -1139082247 1447396034
            -1831003988 -604249830 -419644422 -964630402</internalNodes>
          <leafValues>
            -2.1024212241172791e-01 1.3810485601425171e-01</leafValues></_>
        <_>
          <internalNodes>
            0 -1 40 -876873091 -1074004050 1606265530 -34341066
            2147303294 -1913127169 1593749690 -127685240</internalNodes>
          <leafValues>
            -1.5419410169124603e-01 1.9820608198642731e-01</leafValues></_>
        <_>
          <internalNodes>
            0 -1 11 -452693680 -409074250 -648960002 1157107424
            1085176260 1507183122 915276886 1344406375</internalNodes>
          <leafValues>
            -4.1474917531013489e-01 6.9761894643306732e-02</leafValues></_>
        <_>
          <internalNodes>
            0 -1 6 -1595757404 720004120 -2078249240 42720 1989493424
            895811751 -1278976668 1415599680</internalNodes>
          <leafValues>
            -8.1761592626571655e-01 2.8345810249447823e-02</leafValues></_>
        <_>
          <internalNodes>
            0 -1 34 -146175823 -713048072 1065231353 -798727 -608819588
            -196769 -1091983534 -4521254</internalNodes>
          <leafValues>
            -1.1884453892707825e-01 2.3340639472007751e-01</leafValues></_>
        <_>
          <internalNodes>
            0 -1 26 -1485235041 1539009776 -553730065 918140795
            -824007268 -1744993922 -554452210 -1343674472</internalNodes>
          <leafValues>
            -1.2865681946277618e-01 2.0650087296962738e-01</leafValues></_>
        <_>
          <internalNodes>
            0 -1 41 -1125207876 817708585 -1611155782 -1241581892
            503264757 -2009794629 -1930490203 -1930517829</internalNodes>
          <leafValues>
            -1.6032613813877106e-01 1.7219127714633942e-01</leafValues></_></weakClassifiers></_>
    <!-- stage 6 -->
    <_>
      <maxWeakCount>69</maxWeakCount>
      <stageThreshold>-1.5586622953414917e+00</stageThreshold>
      <weakClassifiers>
        <_>
          <internalNodes>
            0 -1 22 2143274782 -675327046 -1759233312 -123650
            -2000125768 -841365145 -1911293220 -2112322</internalNodes>
          <leafValues>
            -7.5116908550262451e-01 -4.8941662907600403e-01</leafValues></_>
        <_>
          <internalNodes>
            0 -1 44 -50877860 -115667201 1922433790 -1350848133
            -123483068 -92562473 1860958378 -168297685</internalNodes>
          <leafValues>
            -3.7905773520469666e-01 2.1980851888656616e-02</leafValues></_>
        <_>
          <internalNodes>
            0 -1 48 -29897560 -2000744840 -1320077272 -1312865403
            -363228258 -1871725195 -1431075688 -1917851399</internalNodes>
          <leafValues>
            -2.1232593059539795e-01 1.8472057580947876e-01</leafValues></_>
        <_>
          <internalNodes>
            0 -1 28 -224349992 -13788242 1868351478 -993687039 -49697
            -1133761910 -23317527 -933290898</internalNodes>
          <leafValues>
            -1.9209173321723938e-01 1.8025769293308258e-01</leafValues></_>
        <_>
          <internalNodes>
            0 -1 1 1693433406 -1163724014 1845100348 -76032591
            1449785337 1928848851 10977258 -847526281</internalNodes>
          <leafValues>
            -1.1573338508605957e-01 2.4546128511428833e-01</leafValues></_>
        <_>
          <internalNodes>
            0 -1 42 -151070896 923463825 1103701880 321025139
            -1996822096 -477076876 -693453638 -264849191</internalNodes>
          <leafValues>
            -2.0699086785316467e-01 1.5131093561649323e-01</leafValues></_>
        <_>
          <internalNodes>
            0 -1 25 -1081491 -1275134546 2122272382 -542426147
            -545390594 -739770512 -17433716 -170006070</internalNodes>
          <leafValues>
            -1.7910107970237732e-01 1.9268852472305298e-01</leafValues></_>
        <_>
          <internalNodes>
            0 -1 12 -566065024 -1536243155 -20672770 -1342165838
            370299925 1463186548 845635722 1232585851</internalNodes>
          <leafValues>
            -2.4885901808738708e-01 1.2916477024555206e-01</leafValues></_>
        <_>
          <internalNodes>
            0 -1 37 -529083686 -1417145633 2016981958 -1108031358
            -9456682 -655123725 -215172418 -152105320</internalNodes>
          <leafValues>
            -2.0177382230758667e-01 1.5370766818523407e-01</leafValues></_>
        <_>
          <internalNodes>
            0 -1 14 -2098583384 -68293440 -759487490 -141191568
            109339855 2097586336 -1422946892 -840621994</internalNodes>
          <leafValues>
            -2.4873009324073792e-01 1.1907456070184708e-01</leafValues></_>
        <_>
          <internalNodes>
            0 -1 46 1377741516 -894254848 -715201840 2121962495
            -785263184 5609653 -1224999492 -252708881</internalNodes>
          <leafValues>
            -2.0091557502746582e-01 1.4428222179412842e-01</leafValues></_>
        <_>
          <internalNodes>
            0 -1 38 -695950610 -747039846 337741324 1035765436
            -760614352 -98559686 1066155020 990844824</internalNodes>
          <leafValues>
            -2.7237457036972046e-01 1.0816930234432220e-01</leafValues></_>
        <_>
          <internalNodes>
            0 -1 24 -1175483440 -825820932 -1022493742 -38242510
            1521536322 -101214674 -1150251440 -144260522</internalNodes>
          <leafValues>
            -2.1778605878353119e-01 1.3322174549102783e-01</leafValues></_>
        <_>
          <internalNodes>
            0 -1 8 -110247424 -1569272184 -1173891824 -1253939760
            -153783803 572869113 941879840 1466168929</internalNodes>
          <leafValues>
            -2.9465663433074951e-01 1.0381299257278442e-01</leafValues></_>
        <_>
          <internalNodes>
            0 -1 47 -85561848 -1431388564 -135266380 -1077952770
            -2018543766 545017435 -152597270 -71305557</internalNodes>
          <leafValues>
            -1.2337725609540939e-01 2.3264038562774658e-01</leafValues></_>
        <_>
          <internalNodes>
            0 -1 32 867633966 -1616878705 1000952314 -34655308
            -561020676 31476080 -244134922 -67330056</internalNodes>
          <leafValues>
            -1.7899267375469208e-01 1.6083894670009613e-01</leafValues></_>
        <_>
          <internalNodes>
            0 -1 15 1224491576 -1466277168 37558783 -925012894 791315519
            198090913 -1976591666 291460676</internalNodes>
          <leafValues>
            -2.8022831678390503e-01 9.6691146492958069e-02</leafValues></_>
        <_>
          <internalNodes>
            0 -1 16 -209722660 2073776539 -364074256 -826449638
            -2142814786 -2034654766 1704310940 -1739934802</internalNodes>
          <leafValues>
            -1.9748951494693756e-01 1.6369946300983429e-01</leafValues></_>
        <_>
          <internalNodes>
            0 -1 0 -6339064 -780669526 -940166412 1600111778 1902847743
            -822181890 1206277504 -655659821</internalNodes>
          <leafValues>
            -1.3951537013053894e-01 2.1207769215106964e-01</leafValues></_>
        <_>
          <internalNodes>
            0 -1 10 -286339582 -1246368687 -591873 -772635400 1736431096
            -1098907664 -119081332 -537665</internalNodes>
          <leafValues>
            -1.1350593715906143e-01 2.5185674428939819e-01</leafValues></_>
        <_>
          <internalNodes>
            0 -1 23 -2111301874 1161704278 1157547560 -60529718
            1778814876 34735008 -1252783104 1145325568</internalNodes>
          <leafValues>
            -7.3466128110885620e-01 4.1167594492435455e-02</leafValues></_>
        <_>
          <internalNodes>
            0 -1 26 -1400927197 1606118704 -822137089 774906532
            -2039329059 -268484228 -1896635665 -10779793</internalNodes>
          <leafValues>
            -1.4351706206798553e-01 1.8765078485012054e-01</leafValues></_>
        <_>
          <internalNodes>
            0 -1 20 1756146868 -936488514 -565906836 2109851070
            -1213227289 915931576 871657308 68276371</internalNodes>
          <leafValues>
            -3.1657081842422485e-01 8.1229403614997864e-02</leafValues></_>
        <_>
          <internalNodes>
            0 -1 22 -314685684 -155430494 -2094648604 -86275614
            -1961885448 1548798060 -1357120780 -460010434</internalNodes>
          <leafValues>
            -2.2238273918628693e-01 1.1873064190149307e-01</leafValues></_>
        <_>
          <internalNodes>
            0 -1 27 -2013985754 1793572822 16583594 1137688254 -47636312
            883472527 994706076 67649544</internalNodes>
          <leafValues>
            -3.9867883920669556e-01 6.1923954635858536e-02</leafValues></_>
        <_>
          <internalNodes>
            0 -1 41 1844217021 -155369617 2146957180 -18763 -2753
            -396492877 -1653719893 -4245585</internalNodes>
          <leafValues>
            -8.9211024343967438e-02 2.9238069057464600e-01</leafValues></_>
        <_>
          <internalNodes>
            0 -1 35 1142947840 -1968533824 -1466797128 94906400
            547102532 509066867 614480480 537143372</internalNodes>
          <leafValues>
            -6.4665478467941284e-01 3.6389209330081940e-02</leafValues></_>
        <_>
          <internalNodes>
            0 -1 30 39854084 -727166580 -1862789820 1144824100 981205840
            89152448 -2063842308 319716</internalNodes>
          <leafValues>
            -6.4624416828155518e-01 2.9544278979301453e-02</leafValues></_>
        <_>
          <internalNodes>
            0 -1 18 -583025952 -1093665886 -17375308 1977045339
            -17508395 1277820911 1475720534 -539110177</internalNodes>
          <leafValues>
            -1.2837615609169006e-01 1.9989117980003357e-01</leafValues></_>
        <_>
          <internalNodes>
            0 -1 31 -327815515 -285364500 -4407618 2080217982 1073708919
            -1093734409 -1111605667 -1092644901</internalNodes>
          <leafValues>
            -9.0629674494266510e-02 2.8625896573066711e-01</leafValues></_>
        <_>
          <internalNodes>
            0 -1 3 -1929758131 -1974169341 -1025702916 -1585911437
            1287323662 -1206318961 504138483 -413712987</internalNodes>
          <leafValues>
            -1.7344371974468231e-01 1.5237830579280853e-01</leafValues></_>
        <_>
          <internalNodes>
            0 -1 24 703531730 -830015236 -1055934224 -18818506
            -759677632 -201992536 -227496214 -40803695</internalNodes>
          <leafValues>
            -1.6424885392189026e-01 1.4076226949691772e-01</leafValues></_>
        <_>
          <internalNodes>
            0 -1 13 1808037226 -1010564258 1951901459 -1279063886
            1958700432 1974606719 1256936295 1864648626</internalNodes>
          <leafValues>
            -2.3719798028469086e-01 9.6107348799705505e-02</leafValues></_>
        <_>
          <internalNodes>
            0 -1 34 -564359879 -688046107 2139038440 938500058
            -541612490 -71499777 -18176263 -39157486</internalNodes>
          <leafValues>
            -1.2069755792617798e-01 2.0982639491558075e-01</leafValues></_>
        <_>
          <internalNodes>
            0 -1 48 -1905287256 245778157 -2125448652 -977563122
            -1965090005 660970815 -5139407 -1630552982</internalNodes>
          <leafValues>
            -1.6593340039253235e-01 1.3294754922389984e-01</leafValues></_>
        <_>
          <internalNodes>
            0 -1 36 -265095144 1966195479 1629110534 -299095541
            -2113869016 -1375007672 -1504436884 -1651201002</internalNodes>
          <leafValues>
            -3.0812618136405945e-01 7.4452459812164307e-02</leafValues></_>
        <_>
          <internalNodes>
            0 -1 4 -314153500 2091436040 -602165882 -41237824 986153789
            471917174 -2014674763 -872791189</internalNodes>
          <leafValues>
            -1.7498080432415009e-01 1.3015633821487427e-01</leafValues></_>
        <_>
          <internalNodes>
            0 -1 42 -495007988 -1075153909 1103667640 -794037195
            -1728468456 1706549844 1572519114 1513977875</internalNodes>
          <leafValues>
            -1.8886835873126984e-01 1.1358950287103653e-01</leafValues></_>
        <_>
          <internalNodes>
            0 -1 7 -1730637436 6821139 71571034 49586240 143403544
            1653211155 -1969415089 1203983682</internalNodes>
          <leafValues>
            -3.3155575394630432e-01 6.8059973418712616e-02</leafValues></_>
        <_>
          <internalNodes>
            0 -1 5 -3189872 -1576867812 1099896741 -342098896 1242275518
            270332320 -1991946977 803460172</internalNodes>
          <leafValues>
            -1.6881893575191498e-01 1.2555393576622009e-01</leafValues></_>
        <_>
          <internalNodes>
            0 -1 33 -784700052 -142820652 -885389160 -45083462
            1039706640 -1504142147 -1648883342 -944766312</internalNodes>
          <leafValues>
            -2.1919217705726624e-01 9.8664253950119019e-02</leafValues></_>
        <_>
          <internalNodes>
            0 -1 2 -1907881822 550904084 -423608140 73988160 -424408492
            473916552 -522059036 69470576</internalNodes>
          <leafValues>
            -5.9788018465042114e-01 3.4738354384899139e-02</leafValues></_>
        <_>
          <internalNodes>
            0 -1 14 -748298819 -82716 -419483649 -209205528 1874818795
            -39407646 1073673725 -571497252</internalNodes>
          <leafValues>
            -9.1513119637966156e-02 2.5644508004188538e-01</leafValues></_>
        <_>
          <internalNodes>
            0 -1 12 -1908277248 6687276 -20705540 -1610601454 387073041
            354907262 1718485064 3409009</internalNodes>
          <leafValues>
            -5.8792531490325928e-01 3.9019417017698288e-02</leafValues></_>
        <_>
          <internalNodes>
            0 -1 43 -805861886 1995799807 -1048585 -1518404107
            -168766843 1860138459 83346939 1977587191</internalNodes>
          <leafValues>
            -1.4056940376758575e-01 1.6154484450817108e-01</leafValues></_>
        <_>
          <internalNodes>
            0 -1 39 -250602436 1293226364 -1844432644 1780525128
            -1572306148 1083867792 -151665452 263300</internalNodes>
          <leafValues>
            -5.8264088630676270e-01 3.7723384797573090e-02</leafValues></_>
        <_>
          <internalNodes>
            0 -1 21 606655876 -1842740717 319080112 -1848636886
            151933256 2025499650 -365093876 814755848</internalNodes>
          <leafValues>
            -5.2295202016830444e-01 3.8116883486509323e-02</leafValues></_>
        <_>
          <internalNodes>
            0 -1 28 -1540882432 -1239147730 739804598 -1405056510
            -1417798767 2137270408 1285044456 5512744</internalNodes>
          <leafValues>
            -4.2778384685516357e-01 4.3197400867938995e-02</leafValues></_>
        <_>
          <internalNodes>
            0 -1 22 2101232418 -409186010 -1490603326 -104199968
            269551792 1431345510 -1383038896 -682081132</internalNodes>
          <leafValues>
            -2.4680213630199432e-01 8.3224169909954071e-02</leafValues></_>
        <_>
          <internalNodes>
            0 -1 40 1530442284 793958188 352436796 -319366306 1838809948
            481667714 1018929336 -1313105106</internalNodes>
          <leafValues>
            -1.4900332689285278e-01 1.4177243411540985e-01</leafValues></_>
        <_>
          <internalNodes>
            0 -1 9 -285229197 2063003519 -4718637 -1724652594 -856260
            -52179514 -17007235 -546860481</internalNodes>
          <leafValues>
            -9.6782810986042023e-02 2.1947470307350159e-01</leafValues></_>
        <_>
          <internalNodes>
            0 -1 45 1108058634 537932035 -1744814048 189941511 608374800
            58760588 1837901072 147320231</internalNodes>
          <leafValues>
            -2.6399630308151245e-01 8.4143064916133881e-02</leafValues></_>
        <_>
          <internalNodes>
            0 -1 0 -1937057963 -737173342 -420204208 -175382364
            -1589628691 -567051819 -458819632 1534320099</internalNodes>
          <leafValues>
            -1.4720673859119415e-01 1.3772541284561157e-01</leafValues></_>
        <_>
          <internalNodes>
            0 -1 21 -397431 -16389 380497635 -1896091666 -98481
            2147417843 783781067 -1088424025</internalNodes>
          <leafValues>
            -6.8394690752029419e-02 3.1374821066856384e-01</leafValues></_>
        <_>
          <internalNodes>
            0 -1 18 -886574350 -606145626 -900443204 -153136684
            1518371748 -260013927 -91877345 -193766676</internalNodes>
          <leafValues>
            -1.4581966400146484e-01 1.3906708359718323e-01</leafValues></_>
        <_>
          <internalNodes>
            0 -1 17 -1367561724 1243612968 -817619252 -995063124
            713724692 -2096428544 1682206720 4223076</internalNodes>
          <leafValues>
            -9.2246794700622559e-01 2.1915713325142860e-02</leafValues></_>
        <_>
          <internalNodes>
            0 -1 26 -193024512 -375689752 -1052029218 -1726365264
            -889961444 -272905864 -1881505082 -145552654</internalNodes>
          <leafValues>
            -1.4832733571529388e-01 1.3133454322814941e-01</leafValues></_>
        <_>
          <internalNodes>
            0 -1 10 -758232532 339533140 -172584082 283172952 1132286288
            1986416176 -127762364 -1270857466</internalNodes>
          <leafValues>
            -2.9183751344680786e-01 6.7196853458881378e-02</leafValues></_>
        <_>
          <internalNodes>
            0 -1 33 1585098541 2143207153 -1409388552 -646103940 -4141
            -1258627075 -1610954285 -32070</internalNodes>
          <leafValues>
            -8.4073320031166077e-02 2.5013351440429688e-01</leafValues></_>
        <_>
          <internalNodes>
            0 -1 44 2088725058 -33587475 2008973050 762544114 1711013118
            2130640886 -571017479 -1081084498</internalNodes>
          <leafValues>
            -1.1146254837512970e-01 1.7670258879661560e-01</leafValues></_>
        <_>
          <internalNodes>
            0 -1 35 -1260115392 1804295360 -1878986069 1409346305
            -1205215788 1607671474 -270519648 1695874174</internalNodes>
          <leafValues>
            -2.8959172964096069e-01 7.6993256807327271e-02</leafValues></_>
        <_>
          <internalNodes>
            0 -1 12 -546688819 -446189906 -285790513 2009688567
            -1925220933 1432777846 -1091058553 -339872259</internalNodes>
          <leafValues>
            -9.1383457183837891e-02 2.1138313412666321e-01</leafValues></_>
        <_>
          <internalNodes>
            0 -1 8 -328412628 -130137530 -1307912936 -249303824
            -1030456831 -1262616331 673252724 -588098384</internalNodes>
          <leafValues>
            -1.7227870225906372e-01 1.1002520471811295e-01</leafValues></_>
        <_>
          <internalNodes>
            0 -1 19 -298078252 1860955827 -286331174 99429570
            -1074546755 -1090568258 -1208049766 -385902597</internalNodes>
          <leafValues>
            -8.7285019457340240e-02 2.3798619210720062e-01</leafValues></_>
        <_>
          <internalNodes>
            0 -1 4 -196389720 -491730752 -660948606 -23674686 412427172
            1008788342 99254326 2116043472</internalNodes>
          <leafValues>
            -2.4583069980144501e-01 8.6235396564006805e-02</leafValues></_>
        <_>
          <internalNodes>
            0 -1 11 1699237968 928410512 -1019498534 1073759360
            865760770 -1524332536 -1210973884 69206372</internalNodes>
          <leafValues>
            -5.7327413558959961e-01 3.1797591596841812e-02</leafValues></_>
        <_>
          <internalNodes>
            0 -1 38 -156897540 -180289 1034923567 -1614807361 2130312818
            -84426817 783137966 -135839789</internalNodes>
          <leafValues>
            -8.8188588619232178e-02 2.2505497932434082e-01</leafValues></_>
        <_>
          <internalNodes>
            0 -1 37 -25505576 -343403938 -88460812 -1652438912
            -1102072848 -1728898334 1891594981 1103519012</internalNodes>
          <leafValues>
            -2.1442469954490662e-01 9.5798216760158539e-02</leafValues></_>
        <_>
          <internalNodes>
            0 -1 47 -804822400 -1566129960 -719869792 -1128820074
            -874298372 -520238589 -1057651472 -1606420820</internalNodes>
          <leafValues>
            -2.0355504751205444e-01 9.8984532058238983e-02</leafValues></_></weakClassifiers></_>
    <!-- stage 7 -->
    <_>
      <maxWeakCount>88</maxWeakCount>
      <stageThreshold>-1.4106237888336182e+00</stageThreshold>
      <weakClassifiers>
        <_>
          <internalNodes>
            0 -1 24 461261536 -204215476 -831587656 1576687220
            -796340864 -579446418 -232067085 -81098086</internalNodes>
          <leafValues>
            -7.5616753101348877e-01 -5.4256165027618408e-01</leafValues></_>
        <_>
          <internalNodes>
            0 -1 43 -905534952 1917294763 -140359749 -211898061
            1538319108 1100620241 -1816229125 -185622785</internalNodes>
          <leafValues>
            -3.5881647467613220e-01 -6.5138838253915310e-03</leafValues></_>
        <_>
          <internalNodes>
            0 -1 18 -571676184 1568602114 -227501920 1911315520
            -924118116 -184422068 1394642608 1431362692</internalNodes>
          <leafValues>
            -3.0110031366348267e-01 9.4896808266639709e-02</leafValues></_>
        <_>
          <internalNodes>
            0 -1 9 -1395784434 -660864178 496360158 2027569738 179333122
            2095236482 -1566889025 -947940802</internalNodes>
          <leafValues>
            -1.7906622588634491e-01 1.6025497019290924e-01</leafValues></_>
        <_>
          <internalNodes>
            0 -1 14 -903186312 -16915984 1585133852 1905562704
            -1037927309 -540161664 -1368653411 427558080</internalNodes>
          <leafValues>
            -2.2813826799392700e-01 1.0503359884023666e-01</leafValues></_>
        <_>
          <internalNodes>
            0 -1 35 1960837196 916596845 -857703254 1281895600
            -222774536 -84926446 -1180403542 1041260558</internalNodes>
          <leafValues>
            -3.1171968579292297e-01 8.3114244043827057e-02</leafValues></_>
        <_>
          <internalNodes>
            0 -1 13 -2000387206 1651117564 1172171610 802163952
            607716629 892411515 245834623 52822218</internalNodes>
          <leafValues>
            -3.3217141032218933e-01 6.7285180091857910e-02</leafValues></_>
        <_>
          <internalNodes>
            0 -1 42 -1594370486 -1106582747 1250351666 1630005080
            1953148048 -1423936982 -592929142 810809359</internalNodes>
          <leafValues>
            -1.8504454195499420e-01 1.1495221406221390e-01</leafValues></_>
        <_>
          <internalNodes>
            0 -1 11 -2130440106 1713006712 -214820102 -69055200
            1407035344 1303224323 387394461 -582601872</internalNodes>
          <leafValues>
            -2.0513227581977844e-01 1.0565360635519028e-01</leafValues></_>
        <_>
          <internalNodes>
            0 -1 4 553678250 -549786644 -638268880 2143419120 757280638
            -224083325 -1788885232 -705438777</internalNodes>
          <leafValues>
            -1.5644747018814087e-01 1.3873192667961121e-01</leafValues></_>
        <_>
          <internalNodes>
            0 -1 28 -85806870 -91319352 -33108132 541360146 1874758968
            -4625784 1604199854 2048830468</internalNodes>
          <leafValues>
            -1.7731125652790070e-01 1.2909476459026337e-01</leafValues></_>
        <_>
          <internalNodes>
            0 -1 36 1382087396 -1694283253 1614686597 1267323610
            -368078541 -1098186077 -160416666 -3170698</internalNodes>
          <leafValues>
            -1.8525810539722443e-01 1.2555746734142303e-01</leafValues></_>
        <_>
          <internalNodes>
            0 -1 30 -261060514 -626198264 -1873253872 1562757377
            2137524760 1295256384 -1565390156 1879076964</internalNodes>
          <leafValues>
            -2.6729226112365723e-01 8.2301966845989227e-02</leafValues></_>
        <_>
          <internalNodes>
            0 -1 1 -998466508 704831504 100239626 1213452464 384554581
            1683227090 11473694 1148339712</internalNodes>
          <leafValues>
            -3.5401645302772522e-01 5.5085469037294388e-02</leafValues></_>
        <_>
          <internalNodes>
            0 -1 27 -269024216 147275270 88969866 43273662 -77990756
            1905072414 -1235432804 612729352</internalNodes>
          <leafValues>
            -3.2881736755371094e-01 6.0532107949256897e-02</leafValues></_>
        <_>
          <internalNodes>
            0 -1 2 -422696268 -432404066 -1230844178 52641 2090602036
            1987003204 -5236698 1682229330</internalNodes>
          <leafValues>
            -3.4211879968643188e-01 5.7978101074695587e-02</leafValues></_>
        <_>
          <internalNodes>
            0 -1 32 1003520806 -542871126 1134297530 2029121328
            -1294892556 -920080528 -1179594280 -1077289488</internalNodes>
          <leafValues>
            -1.7071872949600220e-01 1.1639469861984253e-01</leafValues></_>
        <_>
          <internalNodes>
            0 -1 37 -251879222 -1624767950 2088530616 -27232208
            -635542820 -1159296584 1439364848 281317030</internalNodes>
          <leafValues>
            -2.7534449100494385e-01 7.6366961002349854e-02</leafValues></_>
        <_>
          <internalNodes>
            0 -1 45 -746472890 51458867 1677771032 859013394 -1871498188
            -1592780391 -17844454 2000104731</internalNodes>
          <leafValues>
            -1.4467641711235046e-01 1.4375708997249603e-01</leafValues></_>
        <_>
          <internalNodes>
            0 -1 12 -691828724 1959156829 -319638820 -262737034 35566897
            -1181695740 -1569512644 -1101568141</internalNodes>
          <leafValues>
            -1.6187572479248047e-01 1.2655577063560486e-01</leafValues></_>
        <_>
          <internalNodes>
            0 -1 34 -1739834823 -245919 2138993400 934530907 -541818963
            -1145241762 -1530149 -1087500640</internalNodes>
          <leafValues>
            -1.3912436366081238e-01 1.4877866208553314e-01</leafValues></_>
        <_>
          <internalNodes>
            0 -1 41 -1631779441 -1258340434 536323642 -1086884172
            -570556937 945158069 -1460764034 -1078258646</internalNodes>
          <leafValues>
            -1.3081780076026917e-01 1.6565909981727600e-01</leafValues></_>
        <_>
          <internalNodes>
            0 -1 26 -42234392 -68194847 -805425169 -1684708832
            -1369395592 -1217025164 -17388545 -10777302</internalNodes>
          <leafValues>
            -1.0686057060956955e-01 2.0156903564929962e-01</leafValues></_>
        <_>
          <internalNodes>
            0 -1 16 -495188992 716739626 -496762720 10277514 268644100
            70886643 614799636 4229024</internalNodes>
          <leafValues>
            -7.3521983623504639e-01 2.5794414803385735e-02</leafValues></_>
        <_>
          <internalNodes>
            0 -1 6 -1029819154 -25329304 -11669237 -705783170 1933787838
            -81419984 -1563338643 -135089522</internalNodes>
          <leafValues>
            -1.7628416419029236e-01 1.1760137975215912e-01</leafValues></_>
        <_>
          <internalNodes>
            0 -1 35 -1364724046 -957371146 -1124859992 2134765106
            -1359159858 -1635795074 -134808838 -176951681</internalNodes>
          <leafValues>
            -1.1048777401447296e-01 1.7786709964275360e-01</leafValues></_>
        <_>
          <internalNodes>
            0 -1 44 1926892120 1069181004 1342984600 1880344691
            2006176500 -266020314 1119870395 -980436166</internalNodes>
          <leafValues>
            -1.6301594674587250e-01 1.2019561231136322e-01</leafValues></_>
        <_>
          <internalNodes>
            0 -1 0 -647094444 -15286862 -1695108484 -654314072 425829865
            1180598229 1441232443 -437654410</internalNodes>
          <leafValues>
            -1.1689851433038712e-01 1.5971185266971588e-01</leafValues></_>
        <_>
          <internalNodes>
            0 -1 5 -1269872768 538490424 554704677 792394836 -758834561
            -1877967710 1593657679 -512665762</internalNodes>
          <leafValues>
            -1.9794842600822449e-01 1.0030763596296310e-01</leafValues></_>
        <_>
          <internalNodes>
            0 -1 22 1270802202 -809749280 4336872 -4454188 -1899452847
            -670014089 -1923354396 -862541892</internalNodes>
          <leafValues>
            -2.0020073652267456e-01 1.0060358792543411e-01</leafValues></_>
        <_>
          <internalNodes>
            0 -1 21 2014462348 352452675 379883066 -1985889782
            -335411709 184977154 861736492 849060450</internalNodes>
          <leafValues>
            -2.6310041546821594e-01 7.0805929601192474e-02</leafValues></_>
        <_>
          <internalNodes>
            0 -1 10 2137933312 337458276 -237595014 -262126425
            1899585624 858648625 1925375812 -599772</internalNodes>
          <leafValues>
            -1.8402114510536194e-01 9.9816657602787018e-02</leafValues></_>
        <_>
          <internalNodes>
            0 -1 48 -1155047569 498929512 -1141135067 -709099980
            -897985541 -2005942401 -281835878 -1112037201</internalNodes>
          <leafValues>
            -1.0361775010824203e-01 1.8061354756355286e-01</leafValues></_>
        <_>
          <internalNodes>
            0 -1 25 1346781292 9578630 169760264 -970062088 -636616770
            -1796870168 -463047968 4245568</internalNodes>
          <leafValues>
            -4.6390566229820251e-01 3.7316974252462387e-02</leafValues></_>
        <_>
          <internalNodes>
            0 -1 34 -261255502 -1610792967 -8510467 -142876838 -4931668
            -4259970 -1397122 -7491713</internalNodes>
          <leafValues>
            -7.7593885362148285e-02 2.4754197895526886e-01</leafValues></_>
        <_>
          <internalNodes>
            0 -1 26 1836796945 1786735716 -536989954 1435544171
            -18706698 -1217068545 -16817169 -169652245</internalNodes>
          <leafValues>
            -9.9803373217582703e-02 1.6684392094612122e-01</leafValues></_>
        <_>
          <internalNodes>
            0 -1 8 -914444184 -260677628 872865552 -243113250 -690937599
            616450793 -254458879 -1326194072</internalNodes>
          <leafValues>
            -1.8623737990856171e-01 9.5799557864665985e-02</leafValues></_>
        <_>
          <internalNodes>
            0 -1 18 -12600324 1343224730 -205150 -120466834 2130499541
            -452591763 1610522460 -18295649</internalNodes>
          <leafValues>
            -1.1069651693105698e-01 1.6177655756473541e-01</leafValues></_>
        <_>
          <internalNodes>
            0 -1 28 1023172804 -282306614 1309003101 542081040
            -1407316936 -56595838 1854191023 -2011943804</internalNodes>
          <leafValues>
            -2.0018027722835541e-01 9.0084500610828400e-02</leafValues></_>
        <_>
          <internalNodes>
            0 -1 31 -293994825 -1073758225 -4341827 1054449401
            1073709055 -672403473 -37847425 -4097</internalNodes>
          <leafValues>
            -4.1050668805837631e-02 4.6445515751838684e-01</leafValues></_>
        <_>
          <internalNodes>
            0 -1 46 -1707994410 -567798630 921883376 -61615309
            -749407404 157154214 -1225140311 -674763293</internalNodes>
          <leafValues>
            -1.3413998484611511e-01 1.2448174506425858e-01</leafValues></_>
        <_>
          <internalNodes>
            0 -1 42 -1435603728 2146336623 -620773575 -1188563152
            -973148280 -67602570 1547353770 -690692888</internalNodes>
          <leafValues>
            -1.0901387035846710e-01 1.5050503611564636e-01</leafValues></_>
        <_>
          <internalNodes>
            0 -1 38 -494632324 -1755774461 1560782380 1033466526
            1242248720 -86660860 512539016 -1175714574</internalNodes>
          <leafValues>
            -1.8308362364768982e-01 8.8960178196430206e-02</leafValues></_>
        <_>
          <internalNodes>
            0 -1 44 -186725686 2147385087 -155189573 -1351352839
            -570692388 1962803166 -805382471 -626524199</internalNodes>
          <leafValues>
            -1.0937652736902237e-01 1.6616274416446686e-01</leafValues></_>
        <_>
          <internalNodes>
            0 -1 39 -1307376518 -6920368 1971335268 2074745448
            -879193270 -1115684332 -84483932 866975925</internalNodes>
          <leafValues>
            -1.8878041207790375e-01 8.7592616677284241e-02</leafValues></_>
        <_>
          <internalNodes>
            0 -1 19 -1067413356 1723480978 243745054 396897376
            -2005331923 -1128518118 -1160241649 23269953</internalNodes>
          <leafValues>
            -2.5834047794342041e-01 6.3446775078773499e-02</leafValues></_>
        <_>
          <internalNodes>
            0 -1 4 -267618912 2024598472 -587806196 -254346526
            -811520132 2048967169 391677329 -189992116</internalNodes>
          <leafValues>
            -1.8294163048267365e-01 1.0672156512737274e-01</leafValues></_>
        <_>
          <internalNodes>
            0 -1 47 -800102080 42141199 -2142802380 -160804273
            -1289492752 -797404134 1826738568 -1064567633</internalNodes>
          <leafValues>
            -1.6251422464847565e-01 1.0548295080661774e-01</leafValues></_>
        <_>
          <internalNodes>
            0 -1 41 -1096039060 -155238549 536327851 -4227339 503166325
            -397017291 976093217 -1074773</internalNodes>
          <leafValues>
            -7.5269706547260284e-02 2.1921694278717041e-01</leafValues></_>
        <_>
          <internalNodes>
            0 -1 33 -2092388052 1018450992 -1585304432 1549014440
            973868048 341331876 -1750537712 2098704</internalNodes>
          <leafValues>
            -5.9717500209808350e-01 2.8199158608913422e-02</leafValues></_>
        <_>
          <internalNodes>
            0 -1 14 116033700 -823779098 -25278178 -506149888 585757415
            -1382053496 745310096 -973337408</internalNodes>
          <leafValues>
            -2.4454873800277710e-01 6.2946990132331848e-02</leafValues></_>
        <_>
          <internalNodes>
            0 -1 30 -68572594 -105054740 -587710593 -29557468 -86050
            -1787502632 -1124270081 -341068058</internalNodes>
          <leafValues>
            -1.0318341106176376e-01 1.6093143820762634e-01</leafValues></_>
        <_>
          <internalNodes>
            0 -1 0 -30732574 -552162134 -2013809929 -67185242 -94230671
            -27852844 1441690737 2077885592</internalNodes>
          <leafValues>
            -1.1052080988883972e-01 1.4948265254497528e-01</leafValues></_>
        <_>
          <internalNodes>
            0 -1 29 1283490212 753165064 -1735356150 1075110626
            778604708 62754936 1538172600 8448</internalNodes>
          <leafValues>
            -6.7469626665115356e-01 2.2339420393109322e-02</leafValues></_>
        <_>
          <internalNodes>
            0 -1 22 1274998658 -423808956 16780480 -105170752
            -2134334312 -1457920651 -841158556 -1879310026</internalNodes>
          <leafValues>
            -1.5749515593051910e-01 1.0718073695898056e-01</leafValues></_>
        <_>
          <internalNodes>
            0 -1 24 55446240 -1031641012 -905381192 1207961396
            1351093248 1567887714 841786944 1552</internalNodes>
          <leafValues>
            -6.3958227634429932e-01 2.3103393614292145e-02</leafValues></_>
        <_>
          <internalNodes>
            0 -1 3 -1459650817 -1141112841 -959713281 -637800449
            1559986143 -41943169 -153092225 -270581781</internalNodes>
          <leafValues>
            -3.6951091140508652e-02 4.7990280389785767e-01</leafValues></_>
        <_>
          <internalNodes>
            0 -1 32 735080996 -1953992416 1134431160 1881680672
            1645248948 151030576 -1148169872 536874048</internalNodes>
          <leafValues>
            -6.0304105281829834e-01 2.7989227324724197e-02</leafValues></_>
        <_>
          <internalNodes>
            0 -1 16 1073646480 737947707 -1066826244 -1055079670
            -1744572429 750379250 -391165829 -521647175</internalNodes>
          <leafValues>
            -1.6816651821136475e-01 8.9028201997280121e-02</leafValues></_>
        <_>
          <internalNodes>
            0 -1 43 -920641408 1644626307 -1283307629 -1336270021
            1218042134 144318801 313977594 1316958946</internalNodes>
          <leafValues>
            -1.6805627942085266e-01 9.2122726142406464e-02</leafValues></_>
        <_>
          <internalNodes>
            0 -1 37 -271682310 -550989262 -63032644 -285181920 -98638860
            -1332477768 -176619590 -9272796</internalNodes>
          <leafValues>
            -1.6236379742622375e-01 1.0448655486106873e-01</leafValues></_>
        <_>
          <internalNodes>
            0 -1 40 -1726457436 -291731256 423174320 -53422569
            1672317660 464909036 1014665392 1346969704</internalNodes>
          <leafValues>
            -2.4679724872112274e-01 6.4038358628749847e-02</leafValues></_>
        <_>
          <internalNodes>
            0 -1 15 1252272640 550783160 582746396 -1596184544 723394604
            -638732128 191203846 541085760</internalNodes>
          <leafValues>
            -6.1154484748840332e-01 2.3161998018622398e-02</leafValues></_>
        <_>
          <internalNodes>
            0 -1 48 -340325316 -558938199 -1141229517 1002405415
            -84151317 -2131771393 -37806625 -822364101</internalNodes>
          <leafValues>
            -8.6268730461597443e-02 1.8206240236759186e-01</leafValues></_>
        <_>
          <internalNodes>
            0 -1 2 -358618908 839909663 -1498658076 -918501966
            -189460956 1391870464 1771081780 108415050</internalNodes>
          <leafValues>
            -2.3617887496948242e-01 6.2505520880222321e-02</leafValues></_>
        <_>
          <internalNodes>
            0 -1 5 -9449585 -1084244435 1878990767 -2865 -553656706
            -1981841934 -537006598 -10241</internalNodes>
          <leafValues>
            -4.3009106069803238e-02 3.8201469182968140e-01</leafValues></_>
        <_>
          <internalNodes>
            0 -1 1 1210092580 704692272 93948448 1213644976 74301973
            568264922 454300480 1080058880</internalNodes>
          <leafValues>
            -4.4190073013305664e-01 3.4413982182741165e-02</leafValues></_>
        <_>
          <internalNodes>
            0 -1 27 -1090305 -1589329 -1477583937 1606385663 -8438083
            -124944930 -1367360529 -551301493</internalNodes>
          <leafValues>
            -4.6890679746866226e-02 3.1552374362945557e-01</leafValues></_>
        <_>
          <internalNodes>
            0 -1 8 -915525583 687236326 872816512 -165158179 -690935679
            -1130313490 1356026946 -68362045</internalNodes>
          <leafValues>
            -1.1655571311712265e-01 1.1793116480112076e-01</leafValues></_>
        <_>
          <internalNodes>
            0 -1 33 1107993012 949228688 16989200 -581737184 -100626804
            -971485268 -544402788 -47650134</internalNodes>
          <leafValues>
            -1.2670129537582397e-01 1.1432257294654846e-01</leafValues></_>
        <_>
          <internalNodes>
            0 -1 14 -12806102 2145774826 -419549185 -192108704
            -680528268 1561309155 -856928780 -109596968</internalNodes>
          <leafValues>
            -1.0101068764925003e-01 1.4734578132629395e-01</leafValues></_>
        <_>
          <internalNodes>
            0 -1 23 -1686171106 1228833854 213077018 -27627198
            -837680244 -972152557 -37821735 -443921701</internalNodes>
          <leafValues>
            -1.6470298171043396e-01 9.3652628362178802e-02</leafValues></_>
        <_>
          <internalNodes>
            0 -1 18 186841576 2019356928 1936824612 1910299010
            -1972888700 1141215305 2055242768 -715359728</internalNodes>
          <leafValues>
            -2.3534953594207764e-01 6.8521603941917419e-02</leafValues></_>
        <_>
          <internalNodes>
            0 -1 45 -1078346036 -1409351683 -1090785345 1807716287
            662050354 -1481531971 -1347475673 -1141144617</internalNodes>
          <leafValues>
            -8.9005328714847565e-02 1.6734223067760468e-01</leafValues></_>
        <_>
          <internalNodes>
            0 -1 10 2070603456 -1807473308 -111930117 1906418768
            943540304 -1322262512 -632624596 2000015713</internalNodes>
          <leafValues>
            -1.5341268479824066e-01 9.9580504000186920e-02</leafValues></_>
        <_>
          <internalNodes>
            0 -1 13 -538559638 854474750 -134222069 -1496053509
            2097149327 -943997057 -1343225857 -81050728</internalNodes>
          <leafValues>
            -9.4342418015003204e-02 1.6246646642684937e-01</leafValues></_>
        <_>
          <internalNodes>
            0 -1 24 -1140863264 -73241988 -277873998 2113508898
            -688607264 -579348632 -160018697 -67121058</internalNodes>
          <leafValues>
            -8.2559369504451752e-02 1.7091806232929230e-01</leafValues></_>
        <_>
          <internalNodes>
            0 -1 30 1927598156 -726861624 337117824 1141164288 -68441464
            70519744 -1332193090 586860</internalNodes>
          <leafValues>
            -2.8463801741600037e-01 5.4168216884136200e-02</leafValues></_>
        <_>
          <internalNodes>
            0 -1 47 -2141757176 42099712 -2147072474 1143755340
            -1020959536 1081607194 -2065661872 62628</internalNodes>
          <leafValues>
            -4.3933528661727905e-01 3.0605416744947433e-02</leafValues></_>
        <_>
          <internalNodes>
            0 -1 34 4720672 35142472 1968178026 932203210 529278468
            1059871576 2074616400 301991936</internalNodes>
          <leafValues>
            -5.1536726951599121e-01 2.3602960631251335e-02</leafValues></_>
        <_>
          <internalNodes>
            0 -1 12 -2042392168 819354636 -35511649 -1290550217
            870151453 1897021440 -214720200 -249043728</internalNodes>
          <leafValues>
            -1.1926481127738953e-01 1.0878967493772507e-01</leafValues></_>
        <_>
          <internalNodes>
            0 -1 35 -467630080 -1682792219 -1939841655 1169008054
            -1279722520 976855066 -340727180 1881288734</internalNodes>
          <leafValues>
            -2.0189638435840607e-01 6.5565377473831177e-02</leafValues></_>
        <_>
          <internalNodes>
            0 -1 17 1060669284 106957081 -1350225274 -524081395
            -2146565228 1259209115 -1610268124 858628150</internalNodes>
          <leafValues>
            -2.3091013729572296e-01 5.8135375380516052e-02</leafValues></_>
        <_>
          <internalNodes>
            0 -1 41 781845772 -1338158176 348493786 1006579892
            1506376756 -1460540911 715786408 486081668</internalNodes>
          <leafValues>
            -2.3430602252483368e-01 5.8521062135696411e-02</leafValues></_>
        <_>
          <internalNodes>
            0 -1 20 -72370689 -83886146 -405406253 -1396441113 939498751
            1993732092 -252215813 -19210273</internalNodes>
          <leafValues>
            -4.4730462133884430e-02 3.1909167766571045e-01</leafValues></_>
        <_>
          <internalNodes>
            0 -1 6 -2037635932 711491944 2085380106 1141414500
            2000749236 989962544 -1550837723 1347695108</internalNodes>
          <leafValues>
            -5.2980029582977295e-01 2.6206294074654579e-02</leafValues></_>
        <_>
          <internalNodes>
            0 -1 10 1986783124 -195812251 -112880398 -420428784
            -113391376 -1237335982 -624269354 -138761854</internalNodes>
          <leafValues>
            -1.1588273197412491e-01 1.1010088771581650e-01</leafValues></_>
        <_>
          <internalNodes>
            0 -1 4 -113937371 -571081754 -604046496 -69993733 -601802754
            -85270925 -1745627745 -40117298</internalNodes>
          <leafValues>
            -5.6024353951215744e-02 2.3416748642921448e-01</leafValues></_></weakClassifiers></_>
    <!-- stage 8 -->
    <_>
      <maxWeakCount>100</maxWeakCount>
      <stageThreshold>-1.3883138895034790e+00</stageThreshold>
      <weakClassifiers>
        <_>
          <internalNodes>
            0 -1 22 985397118 -202572934 -2016641032 -2343172
            -1628905282 -1939324505 -770510354 -7359233</internalNodes>
          <leafValues>
            -7.3363554477691650e-01 -5.5501222610473633e-01</leafValues></_>
        <_>
          <internalNodes>
            0 -1 29 -597129244 -53597558 -1447292375 -2118308711
            1054878086 -2084855138 2109629167 -1667127109</internalNodes>
          <leafValues>
            -3.2058075070381165e-01 -4.8513531684875488e-02</leafValues></_>
        <_>
          <internalNodes>
            0 -1 4 1863089840 -2111250368 -1679402732 -544673056
            757315354 -2140086542 342024464 1159386048</internalNodes>
          <leafValues>
            -2.8144654631614685e-01 6.2451329082250595e-02</leafValues></_>
        <_>
          <internalNodes>
            0 -1 16 -16911622 -1426484102 -211437080 -1644367878
            -59244546 -1908561930 -408576803 -1673463954</internalNodes>
          <leafValues>
            -1.2492139637470245e-01 1.7054864764213562e-01</leafValues></_>
        <_>
          <internalNodes>
            0 -1 44 1524611084 -47447322 1989833656 1718861144
            2079582800 -38556965 -436408130 1970107343</internalNodes>
          <leafValues>
            -1.9778192043304443e-01 9.6543662250041962e-02</leafValues></_>
        <_>
          <internalNodes>
            0 -1 46 -700697908 -896527530 -569152416 208305982
            -804105648 566593745 -1259219712 472421</internalNodes>
          <leafValues>
            -4.1083952784538269e-01 4.4921971857547760e-02</leafValues></_>
        <_>
          <internalNodes>
            0 -1 20 1755849856 -2067381834 -197085376 -1127175324
            840538214 550554248 1660183620 5260884</internalNodes>
          <leafValues>
            -6.1530292034149170e-01 3.4898716956377029e-02</leafValues></_>
        <_>
          <internalNodes>
            0 -1 31 1747984420 381585580 1344278574 444863228 856375652
            -1874817370 -1391710500 160434928</internalNodes>
          <leafValues>
            -4.0882450342178345e-01 3.5434003919363022e-02</leafValues></_>
        <_>
          <internalNodes>
            0 -1 18 2146536170 -131198 -269033808 -36591 -302131204
            -542507017 1198790004 -2360085</internalNodes>
          <leafValues>
            -9.0128943324089050e-02 1.8257051706314087e-01</leafValues></_>
        <_>
          <internalNodes>
            0 -1 14 -933187528 -553867048 -187016712 2010484977
            514269317 -551640432 278710511 33308721</internalNodes>
          <leafValues>
            -1.9125907123088837e-01 9.2476665973663330e-02</leafValues></_>
        <_>
          <internalNodes>
            0 -1 27 1825117226 1088756542 643943116 -961726546
            -276220376 820853979 994706062 84672518</internalNodes>
          <leafValues>
            -2.9300776124000549e-01 5.0799645483493805e-02</leafValues></_>
        <_>
          <internalNodes>
            0 -1 7 1481265444 11072409 40440958 2760974 23998344
            1524588548 -1470257081 1730899591</internalNodes>
          <leafValues>
            -2.1041227877140045e-01 7.6177947223186493e-02</leafValues></_>
        <_>
          <internalNodes>
            0 -1 32 -1409930689 -2035515485 2147418106 -335675418
            2128252919 -914297228 -34277382 -352649480</internalNodes>
          <leafValues>
            -1.1527885496616364e-01 1.4253789186477661e-01</leafValues></_>
        <_>
          <internalNodes>
            0 -1 47 -908974720 -873716952 -759061776 -304328551
            -351540280 -916829253 2045071816 1240200415</internalNodes>
          <leafValues>
            -1.5844660997390747e-01 1.0081841796636581e-01</leafValues></_>
        <_>
          <internalNodes>
            0 -1 37 -1099779336 -271064900 942440386 -1379905376
            -1657078822 -98022216 1398666935 -11695116</internalNodes>
          <leafValues>
            -1.4437302947044373e-01 1.0945863276720047e-01</leafValues></_>
        <_>
          <internalNodes>
            0 -1 28 -361721288 -1153656755 -27996746 767858752 -49377588
            -1081802678 -380347966 -858479300</internalNodes>
          <leafValues>
            -1.7265172302722931e-01 9.0303488075733185e-02</leafValues></_>
        <_>
          <internalNodes>
            0 -1 3 -391086964 -353349213 -963720804 1086385840 480838916
            -1132673019 310647312 1074016480</internalNodes>
          <leafValues>
            -5.8400410413742065e-01 2.5343643501400948e-02</leafValues></_>
        <_>
          <internalNodes>
            0 -1 42 -1870725566 -1643356031 1116651386 -466947463
            -1996882444 -103676976 -1043795525 2030471914</internalNodes>
          <leafValues>
            -1.4329156279563904e-01 1.0510657727718353e-01</leafValues></_>
        <_>
          <internalNodes>
            0 -1 45 -1359434041 -1426259969 -1074205009 1002356671
            74520421 401710398 -269486405 -18577</internalNodes>
          <leafValues>
            -6.4024329185485840e-02 2.4657030403614044e-01</leafValues></_>
        <_>
          <internalNodes>
            0 -1 40 465048100 645582980 520358560 -325017596 1763449276
            249684888 1484656656 0</internalNodes>
          <leafValues>
            -7.2967350482940674e-01 2.0501280203461647e-02</leafValues></_>
        <_>
          <internalNodes>
            0 -1 0 2135862928 -769250656 -623758736 2144059538
            1935946736 -1620124986 98989586 1492010208</internalNodes>
          <leafValues>
            -1.4999642968177795e-01 1.0144074261188507e-01</leafValues></_>
        <_>
          <internalNodes>
            0 -1 48 -1472787296 148193904 -1277514720 -1600175804
            729355032 350597485 1446220816 2557992</internalNodes>
          <leafValues>
            -3.2530972361564636e-01 4.3190360069274902e-02</leafValues></_>
        <_>
          <internalNodes>
            0 -1 26 -1107771974 -75497556 -536989970 487686078 -2052867
            -8958084 -554450946 -281819208</internalNodes>
          <leafValues>
            -8.6917296051979065e-02 1.6350634396076202e-01</leafValues></_>
        <_>
          <internalNodes>
            0 -1 10 -1383905792 -1869566938 -1961642898 -161292230
            1310793558 844357048 -98376172 -1268758762</internalNodes>
          <leafValues>
            -2.2197608649730682e-01 6.2844946980476379e-02</leafValues></_>
        <_>
          <internalNodes>
            0 -1 12 -815658866 -1590243668 -17401859 -69899497
            -1791597389 400981046 1056912571 -570620805</internalNodes>
          <leafValues>
            -1.1033166199922562e-01 1.5365149080753326e-01</leafValues></_>
        <_>
          <internalNodes>
            0 -1 24 -244904200 -826289480 549048496 1556744862
            -1026522732 -1814420951 -163388862 -910784895</internalNodes>
          <leafValues>
            -1.4546038210391998e-01 1.0151470452547073e-01</leafValues></_>
        <_>
          <internalNodes>
            0 -1 8 -1000347710 -365394544 -563744464 -184395786
            -1337708543 -1037614144 1970106400 -143371196</internalNodes>
          <leafValues>
            -1.9024491310119629e-01 7.4318088591098785e-02</leafValues></_>
        <_>
          <internalNodes>
            0 -1 15 -1998226510 915992312 -1346437121 -1543541404
            -1355022987 -605093889 250068703 -1157663545</internalNodes>
          <leafValues>
            -1.1069539189338684e-01 1.3270549476146698e-01</leafValues></_>
        <_>
          <internalNodes>
            0 -1 35 2122298102 -273747971 -360470 -282411488 -274939932
            -8388610 1017969067 -809833745</internalNodes>
          <leafValues>
            -1.0179983824491501e-01 1.3851146399974823e-01</leafValues></_>
        <_>
          <internalNodes>
            0 -1 4 342883372 -201786760 -1627390055 -2360601 -1117538308
            -72360196 99861851 -50757653</internalNodes>
          <leafValues>
            -7.9134665429592133e-02 1.7851835489273071e-01</leafValues></_>
        <_>
          <internalNodes>
            0 -1 1 1625800243 -100537709 1828454301 -36190278 1609168893
            1962206682 965705669 482329609</internalNodes>
          <leafValues>
            -9.4323955476284027e-02 1.5183052420616150e-01</leafValues></_>
        <_>
          <internalNodes>
            0 -1 34 692856864 -1807473983 826804362 924872520 -895155148
            -1416083998 125994552 621805568</internalNodes>
          <leafValues>
            -3.5576766729354858e-01 4.0773577988147736e-02</leafValues></_>
        <_>
          <internalNodes>
            0 -1 2 -2037061454 -1454288461 -1375188978 139273417
            -342798761 470970752 -340777877 -244889102</internalNodes>
          <leafValues>
            -2.0635782182216644e-01 7.1629241108894348e-02</leafValues></_>
        <_>
          <internalNodes>
            0 -1 5 -621916864 740604936 1775705485 201342464 340205164
            -2139783696 1299006732 2118672</internalNodes>
          <leafValues>
            -4.2430174350738525e-01 3.2442554831504822e-02</leafValues></_>
        <_>
          <internalNodes>
            0 -1 39 -726656456 1058046408 1914443884 1654696480
            -1971817444 1439729812 2090910848 262144</internalNodes>
          <leafValues>
            -7.8061127662658691e-01 1.5458519570529461e-02</leafValues></_>
        <_>
          <internalNodes>
            0 -1 7 -17104985 149944251 -1367523715 268247647 2146316284
            2145347325 -268469177 -6301717</internalNodes>
          <leafValues>
            -5.3720816969871521e-02 2.8015115857124329e-01</leafValues></_>
        <_>
          <internalNodes>
            0 -1 22 599450370 -1027810464 -2017055008 -86505248
            -2074058692 -2075115484 -2013208512 1044</internalNodes>
          <leafValues>
            -6.1337894201278687e-01 2.5019392371177673e-02</leafValues></_>
        <_>
          <internalNodes>
            0 -1 11 -1578339824 47842740 -1590545958 1075842176
            1925730640 1152680786 934674448 100</internalNodes>
          <leafValues>
            -7.8690057992935181e-01 1.4320096001029015e-02</leafValues></_>
        <_>
          <internalNodes>
            0 -1 45 -2028948878 -208370813 22039468 37348119 1366298886
            530681902 2145665296 288323831</internalNodes>
          <leafValues>
            -1.7210704088211060e-01 7.7527172863483429e-02</leafValues></_>
        <_>
          <internalNodes>
            0 -1 25 1560300140 580518914 1869844010 970591224 -551472778
            69700420 1081382948 1074848000</internalNodes>
          <leafValues>
            -4.0785914659500122e-01 3.1272020190954208e-02</leafValues></_>
        <_>
          <internalNodes>
            0 -1 48 719822121 1286899374 -67229637 -910225745 -629296214
            -1922187401 674317738 -641744745</internalNodes>
          <leafValues>
            -9.3219198286533356e-02 1.4110350608825684e-01</leafValues></_>
        <_>
          <internalNodes>
            0 -1 36 841015312 -1555020854 12059904 570692152 -364353248
            -833943039 -1535893436 276833296</internalNodes>
          <leafValues>
            -7.8120666742324829e-01 1.6306145116686821e-02</leafValues></_>
        <_>
          <internalNodes>
            0 -1 43 -2214893 1459453687 -1048577 -144769162 -834633
            2128508890 -671185425 -3170569</internalNodes>
          <leafValues>
            -5.1883544772863388e-02 2.6274019479751587e-01</leafValues></_>
        <_>
          <internalNodes>
            0 -1 13 170141280 25307066 1762927362 549453984 1614872868
            286465659 44651364 2490368</internalNodes>
          <leafValues>
            -6.5738993883132935e-01 1.9460661336779594e-02</leafValues></_>
        <_>
          <internalNodes>
            0 -1 30 -1167034198 1502396576 448270638 -995569723
            -298023672 134512848 -291480589 1116865637</internalNodes>
          <leafValues>
            -1.8850475549697876e-01 6.5317749977111816e-02</leafValues></_>
        <_>
          <internalNodes>
            0 -1 18 -273511692 -1881173022 -32451072 1944017818
            -1449606516 -566670419 1644167562 2095767456</internalNodes>
          <leafValues>
            -1.3936680555343628e-01 9.7343370318412781e-02</leafValues></_>
        <_>
          <internalNodes>
            0 -1 38 -1509916628 -1761338876 336339500 496773656
            1108410976 -266271714 260320256 1152</internalNodes>
          <leafValues>
            -7.6968044042587280e-01 1.6226001083850861e-02</leafValues></_>
        <_>
          <internalNodes>
            0 -1 26 -42398029 -612405344 -536891393 -713344193
            -554603106 -8541195 -831325217 -2365957</internalNodes>
          <leafValues>
            -5.9855576604604721e-02 2.2597283124923706e-01</leafValues></_>
        <_>
          <internalNodes>
            0 -1 33 -2074098432 277494803 33988692 -898369316
            -1836449704 -1645683489 528665326 -1633055012</internalNodes>
          <leafValues>
            -1.2286741286516190e-01 1.1751303821802139e-01</leafValues></_>
        <_>
          <internalNodes>
            0 -1 12 -613758931 1969163293 1535686141 -110807780
            490648601 -1679562666 865293426 1702333432</internalNodes>
          <leafValues>
            -1.1625114083290100e-01 1.1453658342361450e-01</leafValues></_>
        <_>
          <internalNodes>
            0 -1 46 -25182600 -553713802 -69648 1836777340 -168307008
            -782761993 -1132956246 -83691825</internalNodes>
          <leafValues>
            -9.8465904593467712e-02 1.2449178099632263e-01</leafValues></_>
        <_>
          <internalNodes>
            0 -1 44 1776274130 -101973252 1914368466 1714698514
            -1577586525 -172840294 -994774368 -1863912478</internalNodes>
          <leafValues>
            -1.2836708128452301e-01 1.0286513715982437e-01</leafValues></_>
        <_>
          <internalNodes>
            0 -1 37 -1503453022 -813272771 -1708359976 -1115581278
            -1657113616 -1037300048 1404892844 -5285035</internalNodes>
          <leafValues>
            -1.3579840958118439e-01 9.0557008981704712e-02</leafValues></_>
        <_>
          <internalNodes>
            0 -1 6 -520146388 -1047592575 1758525338 960245272
            -1198161762 376799508 -1163978714 1936758022</internalNodes>
          <leafValues>
            -1.8433046340942383e-01 6.6980563104152679e-02</leafValues></_>
        <_>
          <internalNodes>
            0 -1 23 688140 577899410 -1457705672 -394733590 456462062
            50462848 1680294160 272648288</internalNodes>
          <leafValues>
            -4.4714888930320740e-01 2.5625601410865784e-02</leafValues></_>
        <_>
          <internalNodes>
            0 -1 29 2147209127 -1392541717 -1111498885 1002434291
            2130706422 -1610612995 -4227073 -1073747525</internalNodes>
          <leafValues>
            -2.6468258351087570e-02 5.0190609693527222e-01</leafValues></_>
        <_>
          <internalNodes>
            0 -1 0 1280229188 -769451552 311456597 1470091418 41466361
            -296760612 1425473242 -1024565046</internalNodes>
          <leafValues>
            -1.1392217874526978e-01 1.0677782446146011e-01</leafValues></_>
        <_>
          <internalNodes>
            0 -1 21 -332659 -16793605 397209534 -1464484950 -98488
            2147417842 -1128968977 -1147158657</internalNodes>
          <leafValues>
            -7.7183052897453308e-02 1.6341273486614227e-01</leafValues></_>
        <_>
          <internalNodes>
            0 -1 42 -120662324 -146214173 1392459706 2092677048
            -2022376104 -1210941604 -1216678488 -191054631</internalNodes>
          <leafValues>
            -9.9697515368461609e-02 1.3221162557601929e-01</leafValues></_>
        <_>
          <internalNodes>
            0 -1 41 216567852 888942632 285287960 684088980 491335733
            542426161 135006768 2888744</internalNodes>
          <leafValues>
            -4.1385757923126221e-01 2.8692042455077171e-02</leafValues></_>
        <_>
          <internalNodes>
            0 -1 9 -2012306592 1288324366 303314256 536896192 -134086608
            1893761152 -1565180624 1073745972</internalNodes>
          <leafValues>
            -8.2781946659088135e-01 1.1790305376052856e-02</leafValues></_>
        <_>
          <internalNodes>
            0 -1 34 -570835029 -981467162 -8411157 -4194597 -541671810
            -71467178 -1343518726 -575693845</internalNodes>
          <leafValues>
            -4.9170713871717453e-02 2.4859413504600525e-01</leafValues></_>
        <_>
          <internalNodes>
            0 -1 40 1937937317 -429207156 457577268 -6561762 -375842504
            -1386027110 -1284112646 -288777824</internalNodes>
          <leafValues>
            -1.0174043476581573e-01 1.1301965266466141e-01</leafValues></_>
        <_>
          <internalNodes>
            0 -1 5 -17838333 1879829595 -268492811 -581435525 -545415177
            -639828624 1568098299 -6308385</internalNodes>
          <leafValues>
            -4.5692835003137589e-02 2.5943687558174133e-01</leafValues></_>
        <_>
          <internalNodes>
            0 -1 41 -538048105 -184697042 -537430211 -104876363
            -570444482 -1156188237 -809509377 -4221653</internalNodes>
          <leafValues>
            -4.4963616877794266e-02 2.4538491666316986e-01</leafValues></_>
        <_>
          <internalNodes>
            0 -1 27 -1245141895 -1362814118 -948872293 -822286593
            -342858136 1879911515 906683118 629959564</internalNodes>
          <leafValues>
            -1.5704384446144104e-01 7.1386858820915222e-02</leafValues></_>
        <_>
          <internalNodes>
            0 -1 11 -135269816 939421684 -335826946 -18199151 -134219819
            -310613157 1073188299 -626023961</internalNodes>
          <leafValues>
            -8.6154066026210785e-02 1.4172253012657166e-01</leafValues></_>
        <_>
          <internalNodes>
            0 -1 35 1685454916 2055612528 -1164814529 -851304432
            1671183172 -619488478 548698552 340005448</internalNodes>
          <leafValues>
            -3.0035370588302612e-01 3.7695411592721939e-02</leafValues></_>
        <_>
          <internalNodes>
            0 -1 47 1082131456 -2001984991 -1564395768 748048400
            269362112 5786394 149225472 2143232</internalNodes>
          <leafValues>
            -5.6884253025054932e-01 1.7419502139091492e-02</leafValues></_>
        <_>
          <internalNodes>
            0 -1 4 1361900768 -251794944 -553713910 -136316190 522305532
            -106701057 267838838 -805611539</internalNodes>
          <leafValues>
            -9.1840587556362152e-02 1.1811127513647079e-01</leafValues></_>
        <_>
          <internalNodes>
            0 -1 44 2086546120 -8454404 1992228857 1827896690 -704657832
            -59310121 -805906757 -1348634845</internalNodes>
          <leafValues>
            -1.0011737793684006e-01 1.1269490420818329e-01</leafValues></_>
        <_>
          <internalNodes>
            0 -1 32 737651236 -1212448789 2147287034 -71352345
            2130423292 -1045631118 -33761933 -641740801</internalNodes>
          <leafValues>
            -5.6347206234931946e-02 2.0100483298301697e-01</leafValues></_>
        <_>
          <internalNodes>
            0 -1 20 -391535446 -1064300398 -395249820 1952486166
            -1826914074 683199176 -492769992 -1340832112</internalNodes>
          <leafValues>
            -2.8821557760238647e-01 3.9785988628864288e-02</leafValues></_>
        <_>
          <internalNodes>
            0 -1 14 -8660505 -213526 -268746753 -6424856 -14287117
            -140595221 -159395841 -1053603</internalNodes>
          <leafValues>
            -4.6835023909807205e-02 2.5868293642997742e-01</leafValues></_>
        <_>
          <internalNodes>
            0 -1 39 -172876254 -283836946 -134382340 1841019514
            -285280292 -673800459 2130166922 -272767810</internalNodes>
          <leafValues>
            -9.4217985868453979e-02 1.1680526286363602e-01</leafValues></_>
        <_>
          <internalNodes>
            0 -1 3 -1472836420 720851330 1603895322 -1889932624
            -257751928 -2000928635 310647442 1904439401</internalNodes>
          <leafValues>
            -1.7196503281593323e-01 6.6670246422290802e-02</leafValues></_>
        <_>
          <internalNodes>
            0 -1 18 -5784845 -14746478 -269164877 -52473596 1040054268
            -576061588 -545481258 -20316454</internalNodes>
          <leafValues>
            -7.4873208999633789e-02 1.6764070093631744e-01</leafValues></_>
        <_>
          <internalNodes>
            0 -1 28 -5771077 -18367507 -294261249 -272130446 -1107911178
            -1074336802 -2165266 -354435201</internalNodes>
          <leafValues>
            -4.6123601496219635e-02 2.3377208411693573e-01</leafValues></_>
        <_>
          <internalNodes>
            0 -1 43 -381415424 1116301459 54659923 -766209696 161546388
            80371744 -788659356 72096502</internalNodes>
