<?xml version="1.0"?>
<opencv_storage>
<stage9>
  <maxWeakCount>7</maxWeakCount>
  <stageThreshold>-1.3552826642990112e+00</stageThreshold>
  <weakClassifiers>
    <_>
      <internalNodes>
        0 -1 1204 -69210241 -207892457 -754859245 -779898673 -84936749
        -1180008319 -607913025 -255590673</internalNodes>
      <leafValues>
        -6.5837198495864868e-01 1.5992970764636993e-01</leafValues></_>
    <_>
      <internalNodes>
        0 -1 34 -421537081 -242099705 -281993333 -136623857 -102105393
        -612333029 -1034969361 -786697257</internalNodes>
      <leafValues>
        -5.1818400621414185e-01 3.1754282116889954e-01</leafValues></_>
    <_>
      <internalNodes>
        0 -1 883 -245507073 -487029810 -997273162 -56699938 -1694260549
        -1744666168 -1283220550 -272715528</internalNodes>
      <leafValues>
        -4.6054649353027344e-01 3.9585635066032410e-01</leafValues></_>
    <_>
      <internalNodes>
        0 -1 816 -572529403 -830877681 -1994284707 -820392309 -393088789
        -1896251144 -137101638 4762479</internalNodes>
      <leafValues>
        -5.7210296392440796e-01 3.1515336036682129e-01</leafValues></_>
    <_>
      <internalNodes>
        0 -1 1113 -648816897 48677727 1627583763 499880223 -863783757
        244234459 -639383339 221591923</internalNodes>
      <leafValues>
        -5.6880885362625122e-01 3.3012750744819641e-01</leafValues></_>
    <_>
      <internalNodes>
        0 -1 31 1288619714 -133293102 -779549672 -1679834739 2027928461
        -149978149 142862511 1142029270</internalNodes>
      <leafValues>
        -6.9945776462554932e-01 2.4432647228240967e-01</leafValues></_>
    <_>
      <internalNodes>
        0 -1 305 1999043423 -543613793 1459914136 2144505688 822091960
        -135460736 197355983 -129799182</internalNodes>
      <leafValues>
        -4.4436559081077576e-01 3.8752621412277222e-01</leafValues></_></weakClassifiers></stage9>
</opencv_storage>
