<?xml version="1.0"?>
<opencv_storage>
<stage7>
  <maxWeakCount>7</maxWeakCount>
  <stageThreshold>-1.5827997922897339e+00</stageThreshold>
  <weakClassifiers>
    <_>
      <internalNodes>
        0 -1 1087 -70525969 -144866869 -776960554 828366303 -91686028
        -753891254 -92019714 -203424769</internalNodes>
      <leafValues>
        -7.6910740137100220e-01 -2.8999064117670059e-02</leafValues></_>
    <_>
      <internalNodes>
        0 -1 243 -415761429 -431296242 -750651183 -139468402 -71566599
        -892604320 -251465085 -779619869</internalNodes>
      <leafValues>
        -5.4049754142761230e-01 3.3721670508384705e-01</leafValues></_>
    <_>
      <internalNodes>
        0 -1 208 -781204754 -741215786 -510536241 -639510572 -997089046
        -1701081045 -639037617 1464930886</internalNodes>
      <leafValues>
        -7.1734338998794556e-01 2.7896460890769958e-01</leafValues></_>
    <_>
      <internalNodes>
        0 -1 105 -781875722 1976882558 1083330786 -49218658 -243103226
        -1707045941 1076345877 2000780827</internalNodes>
      <leafValues>
        -6.8842262029647827e-01 3.1108894944190979e-01</leafValues></_>
    <_>
      <internalNodes>
        0 -1 859 -1544625654 932429825 1357107447 2144899543 -911480017
        -116510719 -406472257 -4498738</internalNodes>
      <leafValues>
        -5.0192582607269287e-01 4.0780189633369446e-01</leafValues></_>
    <_>
      <internalNodes>
        0 -1 1095 -783031869 -933871597 1493686712 -114204605 -83494227
        -121405269 -690883140 28835275</internalNodes>
      <leafValues>
        -5.7287776470184326e-01 3.7056997418403625e-01</leafValues></_>
    <_>
      <internalNodes>
        0 -1 1161 -129604016 -753168282 -2146901557 1594445833
        -922566541 -93648793 -696215889 -2010992269</internalNodes>
      <leafValues>
        -6.6107189655303955e-01 2.9813548922538757e-01</leafValues></_></weakClassifiers></stage7>
</opencv_storage>
